0.000000000000000000e+00,0.000000000000000000e+00,0.000000000000000000e+00,0.000000000000000000e+00,0.000000000000000000e+00,0.000000000000000000e+00,0.000000000000000000e+00,0.000000000000000000e+00,0.000000000000000000e+00,0.000000000000000000e+00
0.000000000000000000e+00,0.000000000000000000e+00,0.000000000000000000e+00,0.000000000000000000e+00,0.000000000000000000e+00,0.000000000000000000e+00,0.000000000000000000e+00,0.000000000000000000e+00,0.000000000000000000e+00,0.000000000000000000e+00
0.000000000000000000e+00,0.000000000000000000e+00,0.000000000000000000e+00,0.000000000000000000e+00,0.000000000000000000e+00,0.000000000000000000e+00,0.000000000000000000e+00,0.000000000000000000e+00,0.000000000000000000e+00,0.000000000000000000e+00
0.000000000000000000e+00,0.000000000000000000e+00,0.000000000000000000e+00,0.000000000000000000e+00,0.000000000000000000e+00,0.000000000000000000e+00,0.000000000000000000e+00,0.000000000000000000e+00,0.000000000000000000e+00,0.000000000000000000e+00
0.000000000000000000e+00,0.000000000000000000e+00,0.000000000000000000e+00,0.000000000000000000e+00,0.000000000000000000e+00,0.000000000000000000e+00,0.000000000000000000e+00,0.000000000000000000e+00,0.000000000000000000e+00,0.000000000000000000e+00
0.000000000000000000e+00,0.000000000000000000e+00,0.000000000000000000e+00,0.000000000000000000e+00,0.000000000000000000e+00,0.000000000000000000e+00,0.000000000000000000e+00,0.000000000000000000e+00,0.000000000000000000e+00,0.000000000000000000e+00
0.000000000000000000e+00,0.000000000000000000e+00,0.000000000000000000e+00,0.000000000000000000e+00,0.000000000000000000e+00,0.000000000000000000e+00,0.000000000000000000e+00,0.000000000000000000e+00,0.000000000000000000e+00,0.000000000000000000e+00
0.000000000000000000e+00,0.000000000000000000e+00,0.000000000000000000e+00,0.000000000000000000e+00,0.000000000000000000e+00,0.000000000000000000e+00,0.000000000000000000e+00,0.000000000000000000e+00,0.000000000000000000e+00,0.000000000000000000e+00
0.000000000000000000e+00,0.000000000000000000e+00,0.000000000000000000e+00,0.000000000000000000e+00,0.000000000000000000e+00,0.000000000000000000e+00,0.000000000000000000e+00,0.000000000000000000e+00,0.000000000000000000e+00,0.000000000000000000e+00
0.000000000000000000e+00,0.000000000000000000e+00,0.000000000000000000e+00,0.000000000000000000e+00,0.000000000000000000e+00,0.000000000000000000e+00,0.000000000000000000e+00,0.000000000000000000e+00,0.000000000000000000e+00,0.000000000000000000e+00
0.000000000000000000e+00,0.000000000000000000e+00,0.000000000000000000e+00,0.000000000000000000e+00,0.000000000000000000e+00,0.000000000000000000e+00,0.000000000000000000e+00,0.000000000000000000e+00,0.000000000000000000e+00,0.000000000000000000e+00
0.000000000000000000e+00,0.000000000000000000e+00,0.000000000000000000e+00,0.000000000000000000e+00,0.000000000000000000e+00,0.000000000000000000e+00,0.000000000000000000e+00,0.000000000000000000e+00,0.000000000000000000e+00,0.000000000000000000e+00
-5.478885261909368612e-06,-5.696589272341969923e-06,-7.926030926194619459e-05,-2.093665412470643801e-05,-2.878672776914216642e-03,-7.580046467940846457e-06,3.201200082465457172e-03,-6.228221629205083976e-06,-5.819393457883508062e-05,-1.391526649543526738e-04
-2.021787732637226264e-05,-2.011171077167688465e-05,3.258658817891454430e-04,-5.362750196031014342e-05,-6.517648952036444489e-03,-2.444712592096252854e-05,6.856983691960619534e-03,-2.296409450541526885e-05,-2.105196046306682001e-04,-3.133127065979193337e-04
-9.148408832838334135e-06,-8.499793536035119443e-06,5.557573788175625357e-04,-8.661489483906427813e-06,-2.385285534554670882e-04,-8.734922617628871345e-06,-1.697485316494742565e-04,-1.037853972566076006e-05,-9.246878605848354545e-05,-9.588353458068354617e-06
-3.811837013682640458e-07,-3.541580640014630984e-07,2.315655745073178136e-05,-3.608953951627679491e-07,-9.938689727311111736e-06,-3.639551090678692864e-07,-7.072855485394757018e-06,-4.324391552358653024e-07,-3.852866085770144904e-06,-3.995147274195157816e-07
0.000000000000000000e+00,0.000000000000000000e+00,0.000000000000000000e+00,0.000000000000000000e+00,0.000000000000000000e+00,0.000000000000000000e+00,0.000000000000000000e+00,0.000000000000000000e+00,0.000000000000000000e+00,0.000000000000000000e+00
0.000000000000000000e+00,0.000000000000000000e+00,0.000000000000000000e+00,0.000000000000000000e+00,0.000000000000000000e+00,0.000000000000000000e+00,0.000000000000000000e+00,0.000000000000000000e+00,0.000000000000000000e+00,0.000000000000000000e+00
0.000000000000000000e+00,0.000000000000000000e+00,0.000000000000000000e+00,0.000000000000000000e+00,0.000000000000000000e+00,0.000000000000000000e+00,0.000000000000000000e+00,0.000000000000000000e+00,0.000000000000000000e+00,0.000000000000000000e+00
0.000000000000000000e+00,0.000000000000000000e+00,0.000000000000000000e+00,0.000000000000000000e+00,0.000000000000000000e+00,0.000000000000000000e+00,0.000000000000000000e+00,0.000000000000000000e+00,0.000000000000000000e+00,0.000000000000000000e+00
0.000000000000000000e+00,0.000000000000000000e+00,0.000000000000000000e+00,0.000000000000000000e+00,0.000000000000000000e+00,0.000000000000000000e+00,0.000000000000000000e+00,0.000000000000000000e+00,0.000000000000000000e+00,0.000000000000000000e+00
0.000000000000000000e+00,0.000000000000000000e+00,0.000000000000000000e+00,0.000000000000000000e+00,0.000000000000000000e+00,0.000000000000000000e+00,0.000000000000000000e+00,0.000000000000000000e+00,0.000000000000000000e+00,0.000000000000000000e+00
0.000000000000000000e+00,0.000000000000000000e+00,0.000000000000000000e+00,0.000000000000000000e+00,0.000000000000000000e+00,0.000000000000000000e+00,0.000000000000000000e+00,0.000000000000000000e+00,0.000000000000000000e+00,0.000000000000000000e+00
0.000000000000000000e+00,0.000000000000000000e+00,0.000000000000000000e+00,0.000000000000000000e+00,0.000000000000000000e+00,0.000000000000000000e+00,0.000000000000000000e+00,0.000000000000000000e+00,0.000000000000000000e+00,0.000000000000000000e+00
0.000000000000000000e+00,0.000000000000000000e+00,0.000000000000000000e+00,0.000000000000000000e+00,0.000000000000000000e+00,0.000000000000000000e+00,0.000000000000000000e+00,0.000000000000000000e+00,0.000000000000000000e+00,0.000000000000000000e+00
0.000000000000000000e+00,0.000000000000000000e+00,0.000000000000000000e+00,0.000000000000000000e+00,0.000000000000000000e+00,0.000000000000000000e+00,0.000000000000000000e+00,0.000000000000000000e+00,0.000000000000000000e+00,0.000000000000000000e+00
0.000000000000000000e+00,0.000000000000000000e+00,0.000000000000000000e+00,0.000000000000000000e+00,0.000000000000000000e+00,0.000000000000000000e+00,0.000000000000000000e+00,0.000000000000000000e+00,0.000000000000000000e+00,0.000000000000000000e+00
0.000000000000000000e+00,0.000000000000000000e+00,0.000000000000000000e+00,0.000000000000000000e+00,0.000000000000000000e+00,0.000000000000000000e+00,0.000000000000000000e+00,0.000000000000000000e+00,0.000000000000000000e+00,0.000000000000000000e+00
0.000000000000000000e+00,0.000000000000000000e+00,0.000000000000000000e+00,0.000000000000000000e+00,0.000000000000000000e+00,0.000000000000000000e+00,0.000000000000000000e+00,0.000000000000000000e+00,0.000000000000000000e+00,0.000000000000000000e+00
0.000000000000000000e+00,0.000000000000000000e+00,0.000000000000000000e+00,0.000000000000000000e+00,0.000000000000000000e+00,0.000000000000000000e+00,0.000000000000000000e+00,0.000000000000000000e+00,0.000000000000000000e+00,0.000000000000000000e+00
0.000000000000000000e+00,0.000000000000000000e+00,0.000000000000000000e+00,0.000000000000000000e+00,0.000000000000000000e+00,0.000000000000000000e+00,0.000000000000000000e+00,0.000000000000000000e+00,0.000000000000000000e+00,0.000000000000000000e+00
0.000000000000000000e+00,0.000000000000000000e+00,0.000000000000000000e+00,0.000000000000000000e+00,0.000000000000000000e+00,0.000000000000000000e+00,0.000000000000000000e+00,0.000000000000000000e+00,0.000000000000000000e+00,0.000000000000000000e+00
-8.555180950128990399e-07,-6.279418623193553246e-07,-5.623347009488276134e-06,-6.297232659959478926e-07,-1.185918829579053786e-05,-1.008107777970520691e-06,3.268892968543367464e-05,-6.553091075806401319e-07,-6.891572901623029225e-06,-4.538221369652468558e-06
-2.970309982669048628e-06,-2.158309648660698830e-06,-1.916955168799439974e-05,-2.165107934533269510e-06,-1.167858641771873164e-04,-3.276410068852250859e-06,1.870831182697738548e-04,-5.930550577780653720e-06,-2.060967408086082709e-05,-1.401734011123545139e-05
-3.349206930603809885e-05,-1.737487963959604334e-05,-1.666333474276673529e-04,-1.771711822295985730e-05,-9.700367023269996711e-03,-1.827176696968006248e-05,1.023242602576736847e-02,-2.141976186483891451e-04,-2.394160286963640440e-05,-4.043059941340651476e-05
-1.101323049375061629e-04,-6.557406251985948057e-05,-4.573266272703826953e-04,-4.724805656958593536e-05,-2.904036069421117583e-02,-5.121931977068025694e-05,3.056613227423781581e-02,-5.343641708034812306e-04,-1.243724667998751562e-04,-1.355345713552532640e-04
-3.150047066209548589e-04,-1.070445418924901660e-03,-2.382058192493515750e-03,-1.204900881457748521e-04,-4.966872972485705112e-02,-1.155850325807787447e-04,5.550424082579569207e-02,-7.167946317131315475e-04,-9.131131500168984368e-04,-2.020198804427300392e-04
-5.712553681551767052e-04,-9.036652217686882678e-04,-4.161404092764094641e-03,-1.415906400110903535e-04,-3.387832250269488116e-02,-1.644541532702236287e-04,4.187723074218673708e-02,-5.778134345030999956e-04,-1.225523052950434899e-03,-2.532022760690617142e-04
-1.169624915460370672e-03,-6.537888797236972999e-04,-3.904726158778072144e-03,-2.333671354242513522e-04,-4.015537920126977661e-02,-3.418944777088408853e-04,5.016685712095271532e-02,-8.960071248940355317e-04,-1.744957080841269981e-03,-1.067112146852385339e-03
-1.362288486065807306e-03,-3.960798341413575220e-04,-5.014091890867399849e-03,-3.200288545026589316e-04,-4.445053075536781195e-02,-4.502337581399328556e-04,5.847349437764760155e-02,-1.597840786329829269e-03,-2.367699841190712157e-03,-2.514700171042122227e-03
-1.072261363546031304e-03,-4.569748860744763438e-04,-7.310816805229484149e-03,-4.748160192796119531e-04,-9.519106873961813431e-02,-5.426819667133384387e-04,1.152447964096512956e-01,-2.857099534931887078e-03,-3.179893958332321094e-03,-4.159183135926003416e-03
-9.866673216957382898e-04,-3.868320437240430347e-04,-2.204418158845034437e-03,-3.827437694973725101e-04,-5.454033528961942795e-02,-7.029091064751478600e-04,6.526042195621437059e-02,-1.101690658694957090e-03,-2.924016977629962429e-03,-2.030808630032691648e-03
-1.548766202139091955e-03,8.044906923714975275e-03,6.863730579962287574e-03,-1.097742911665761838e-03,-3.311928293905107984e-02,-8.907256282713523496e-04,2.686425432209216951e-02,-7.457015156677135890e-04,-2.925392783556546219e-03,-1.445279845417898066e-03
6.576735658890464978e-03,9.760606149229756820e-03,1.240619453116555138e-02,-1.234765929942263467e-03,-5.608862539133771530e-02,-8.676730380453401108e-04,3.973818937778571259e-02,-7.698976643941811285e-04,-2.636952212872918644e-03,-6.883811480479100180e-03
2.132610181178837619e-02,5.633739802839033556e-04,1.662045594999054382e-02,-5.193740608019331139e-04,-4.007684257999789140e-02,-7.472788500314839861e-04,2.100224624618469635e-02,-6.843607693749299359e-04,-2.667161100350927145e-03,-1.481716062769036779e-02
9.984971864452780663e-03,-6.427226658013399270e-04,-7.491223834936830590e-03,-3.174918284757309844e-04,-1.208635857378636408e-02,-8.153520746729047775e-04,2.216113641639456955e-02,-4.872238518608375192e-04,-2.805814320055855307e-03,-7.499921131257494995e-03
-6.802687510931135261e-04,-2.567616740968361750e-04,-6.700835387817066259e-03,-2.117263948029160796e-04,-1.994521495956537525e-03,-7.644992777974254439e-04,1.456778924466489537e-02,-2.014199033038082895e-04,-2.865955237976805254e-03,-8.918011218203932998e-04
-3.978630239591602127e-04,-1.954878057650763458e-04,-2.915208011574004637e-03,-2.005306548778211127e-04,-1.380094446810888531e-03,-5.549942228611346633e-04,7.490069067511749036e-03,-1.037997955476528466e-04,-1.311760976355481412e-03,-4.303301297605262527e-04
-2.648318632742859176e-04,-1.676921208854625488e-04,-2.096611986051031152e-03,-2.226637614065076463e-04,-3.206473674668444858e-03,-4.202563977821441202e-04,7.773512904063722105e-03,-7.805027226649239171e-05,-9.328684217885606757e-04,-3.840644059407955597e-04
-1.946556529288163051e-04,-3.378097793235453983e-05,-8.332674163327840602e-04,-6.541817988984523734e-05,-1.178912193846293199e-02,-1.037594706459793903e-04,1.346893905875480059e-02,-2.671905637939754895e-05,-2.939755854175456337e-04,-1.282407807651328902e-04
-9.060176308083172660e-05,-1.815251560208525292e-05,-1.716622052511212180e-04,-2.739239200299619639e-05,-1.493919755384130743e-02,-4.084415110766364437e-05,1.559564774284621924e-02,-2.049246825169467461e-05,-1.966890426802724023e-04,-9.061565102823757099e-05
-8.763045594998792248e-06,-8.382293442991101305e-06,-3.216181410723938479e-05,-8.373004926435067888e-06,-2.484015060964165147e-03,-9.035848008316513802e-06,2.684643480156667910e-03,-1.246279876480220933e-05,-9.023781052812185702e-05,-3.121180381959588290e-05
0.000000000000000000e+00,0.000000000000000000e+00,0.000000000000000000e+00,0.000000000000000000e+00,0.000000000000000000e+00,0.000000000000000000e+00,0.000000000000000000e+00,0.000000000000000000e+00,0.000000000000000000e+00,0.000000000000000000e+00
0.000000000000000000e+00,0.000000000000000000e+00,0.000000000000000000e+00,0.000000000000000000e+00,0.000000000000000000e+00,0.000000000000000000e+00,0.000000000000000000e+00,0.000000000000000000e+00,0.000000000000000000e+00,0.000000000000000000e+00
0.000000000000000000e+00,0.000000000000000000e+00,0.000000000000000000e+00,0.000000000000000000e+00,0.000000000000000000e+00,0.000000000000000000e+00,0.000000000000000000e+00,0.000000000000000000e+00,0.000000000000000000e+00,0.000000000000000000e+00
0.000000000000000000e+00,0.000000000000000000e+00,0.000000000000000000e+00,0.000000000000000000e+00,0.000000000000000000e+00,0.000000000000000000e+00,0.000000000000000000e+00,0.000000000000000000e+00,0.000000000000000000e+00,0.000000000000000000e+00
0.000000000000000000e+00,0.000000000000000000e+00,0.000000000000000000e+00,0.000000000000000000e+00,0.000000000000000000e+00,0.000000000000000000e+00,0.000000000000000000e+00,0.000000000000000000e+00,0.000000000000000000e+00,0.000000000000000000e+00
0.000000000000000000e+00,0.000000000000000000e+00,0.000000000000000000e+00,0.000000000000000000e+00,0.000000000000000000e+00,0.000000000000000000e+00,0.000000000000000000e+00,0.000000000000000000e+00,0.000000000000000000e+00,0.000000000000000000e+00
-4.274890740627972662e-06,-2.509863690455733472e-06,-3.173633599902206982e-06,-3.159967631090376961e-06,-4.724810685359792244e-06,-2.459661218554697550e-05,9.961777931669774100e-05,-2.509842363303328139e-06,-2.766842925907361608e-05,-2.699972916133777157e-05
4.682440058736864500e-04,-1.137268645035178734e-06,-4.103866828247028850e-06,-1.137899677732767076e-06,-3.886786642069037191e-04,-3.049006574166839944e-06,-2.727975715188840140e-05,-4.580322431003453095e-06,-2.276922633917810178e-06,-3.600029772479163242e-05
1.278535435464372538e-04,-1.415801148885459523e-05,-2.694871367050221973e-04,-1.483082814561267871e-05,-5.120230602275287072e-04,-3.246455566433852953e-05,9.117946373945898589e-04,-2.500152247562399026e-05,-1.279191310394483551e-04,-4.376393519459751731e-05
-4.399004247362206272e-05,-3.670212577142464903e-05,3.815014632286082143e-04,-1.893813349605509360e-04,-3.822608667424135616e-04,-6.699161369889104507e-05,5.832687186045513658e-04,-3.582850243594209772e-05,-1.595966337193032651e-04,-5.001906203101164441e-05
-5.861349306440559633e-03,-1.830674471814857437e-04,1.463739163336211452e-03,-1.163890314484671918e-03,-1.363984305252606381e-02,-2.941080750708145383e-04,2.148347618762433062e-02,-8.759444642506249504e-04,-7.105947537266117707e-04,-2.184179372797187557e-04
-7.356380690059581562e-03,-7.350586264163605369e-04,-1.973724459960663792e-03,-1.688945881628522864e-03,-3.658739737005786696e-02,-8.902364604048301246e-04,5.364859514153261927e-02,-2.093412781881416607e-03,-1.707689611685530217e-03,-6.157492594378289295e-04
-7.580063973171097258e-03,-1.151528016078028245e-02,-1.234771585022854772e-03,-4.630204368620598199e-03,-7.618843206389239175e-02,-1.376005934752307265e-03,1.121020623576991920e-01,-4.518070892822028881e-03,-4.127617769038039938e-03,-9.316156095995428319e-04
-9.122327081372238328e-03,-2.212386788455606573e-02,1.071994741299019289e-02,-7.218054352642049899e-03,-9.977375911534312747e-02,-3.306604160326758694e-03,1.486994515033360220e-01,-6.772761636026536532e-03,-9.107408310581309799e-03,-1.994616375478253361e-03
-9.429173059692689055e-03,-9.586268546856310455e-03,1.523039956694479530e-02,-2.883882218444016178e-04,-1.533810082537226949e-01,-1.411124030663785632e-02,1.994501588789707736e-01,-7.412625515423644680e-03,-1.515943267500982974e-02,-5.312421866728016077e-03
-2.154144850863604077e-02,1.080105647607986982e-02,1.613657615481198238e-02,1.194040632508409569e-02,-1.626434906943910186e-01,-2.898634319953925439e-02,2.160513163538100023e-01,-8.991972543632849660e-03,-2.388658958134835808e-02,-8.879510782238347194e-03
-3.238831634765614725e-02,3.807149718309369574e-02,4.339103513773740969e-03,1.794458877556977944e-02,-2.153839554401665302e-01,-3.503241445053827813e-02,2.885811549611933535e-01,-1.314292490062969262e-02,-3.754517355707787107e-02,-1.544355973756195849e-02
-4.254047730484640522e-02,4.556175193379534416e-02,2.240561599894078451e-02,-1.489285135029392530e-03,-1.812922401887120116e-01,-4.370768721732824075e-02,2.856772023512945125e-01,-1.274554693693013413e-02,-5.083942962792302456e-02,-2.102990387326140673e-02
-6.254170786072721366e-02,5.476673789508406526e-02,3.335955740559753274e-02,-3.615447588284600219e-03,-1.252386061257976246e-01,-5.377285530352941822e-02,2.520893215737342041e-01,-9.110441865258847582e-03,-6.244710764330384939e-02,-2.348945048751449258e-02
-6.317633879515610618e-02,7.119134463445078720e-02,4.111322261734857986e-02,-4.160734109086941003e-03,-1.552167406812479666e-01,-3.439187676844426833e-02,2.548370000137902824e-01,-9.066641105118797631e-03,-7.218914068457119027e-02,-2.894009512196455552e-02
-5.085183953046947675e-02,1.495218858233515920e-02,7.797438730159859943e-02,2.803479029540870832e-03,-1.421343651377381390e-01,-1.547398912263195196e-02,2.268060190466697768e-01,-8.369126241623014301e-03,-7.251628651666384984e-02,-3.319046741101824849e-02
-4.575572225432850137e-02,-1.013274200996450332e-02,1.463502005001684515e-02,3.905487472475938277e-04,-6.595899786575670776e-02,9.864262533342755862e-05,1.975272557419521513e-01,-7.113723603160883834e-03,-5.993620830093040336e-02,-2.375407313040912155e-02
-3.254278349403274401e-02,-1.211013125519601590e-03,-4.429765543483678986e-02,-1.237648719401987681e-02,-4.580532686733114478e-02,-1.508370600914558327e-03,1.944398281781400395e-01,-6.676903090191251694e-03,-3.298535340297047147e-02,-1.703593496832393750e-02
-2.669781664558744730e-02,1.260004259325856434e-02,-7.992465978402975291e-02,-1.331888611878564131e-02,-2.625430693027973328e-02,9.036303949597227977e-03,1.808626847488785383e-01,-5.896589879954568236e-03,-3.900161013851105585e-02,-1.140516179458598775e-02
-1.897928243666883313e-02,-2.801932140361567455e-03,-5.642433758322798476e-02,-1.024156339554389318e-02,-1.152928814301370022e-02,-5.100726890146915250e-03,1.367246497839204600e-01,-4.811202730299457726e-03,-2.135558829985308160e-02,-5.480728164805071315e-03
-1.048465015427930448e-02,-4.068383471995336113e-03,-3.231459287414917975e-02,-6.135655465776859198e-03,-2.242451435940343192e-03,-1.979094092988968601e-02,9.019791004088140163e-02,-1.756044519397868689e-03,-1.051042696508151623e-02,-2.894764224371331168e-03
-5.414392731525257546e-03,-1.523857397513799210e-03,-1.943130925280436502e-02,-3.570972778507379604e-03,-1.427813908024992348e-02,-1.005604852818180357e-02,6.148838453979518087e-02,-8.504445361089283057e-04,-5.060389121969629048e-03,-1.302831112934082613e-03
-1.889155313448866906e-03,-4.623923356345029383e-04,-1.520820803075934079e-03,-9.460541943178454437e-04,-9.220329113743866087e-03,-6.649891995985111881e-03,2.390235502417441607e-02,-1.853803121063547755e-04,-2.655015217519456593e-03,-3.733157383424606161e-04
-4.039905946343443814e-04,-3.136622469129384254e-04,9.825879179257280063e-03,-2.622790475113502963e-04,-5.498261322646389154e-04,-1.750744893961364177e-03,-3.957986371246373196e-03,-5.788455628429196290e-05,-2.428645100730527761e-03,-1.008602357114500261e-04
-4.148156924610464484e-05,-1.476269106097943145e-04,6.411227395875495824e-03,-2.595933700589581874e-05,-1.870212658142989817e-04,-6.516085010252303366e-04,-4.239713745278842968e-03,-1.389400883582687552e-05,-1.089396313565668076e-03,-1.452574449383489840e-05
0.000000000000000000e+00,0.000000000000000000e+00,0.000000000000000000e+00,0.000000000000000000e+00,0.000000000000000000e+00,0.000000000000000000e+00,0.000000000000000000e+00,0.000000000000000000e+00,0.000000000000000000e+00,0.000000000000000000e+00
0.000000000000000000e+00,0.000000000000000000e+00,0.000000000000000000e+00,0.000000000000000000e+00,0.000000000000000000e+00,0.000000000000000000e+00,0.000000000000000000e+00,0.000000000000000000e+00,0.000000000000000000e+00,0.000000000000000000e+00
0.000000000000000000e+00,0.000000000000000000e+00,0.000000000000000000e+00,0.000000000000000000e+00,0.000000000000000000e+00,0.000000000000000000e+00,0.000000000000000000e+00,0.000000000000000000e+00,0.000000000000000000e+00,0.000000000000000000e+00
0.000000000000000000e+00,0.000000000000000000e+00,0.000000000000000000e+00,0.000000000000000000e+00,0.000000000000000000e+00,0.000000000000000000e+00,0.000000000000000000e+00,0.000000000000000000e+00,0.000000000000000000e+00,0.000000000000000000e+00
-9.858356914751289964e-06,-5.967372856202384582e-06,1.237252385717908580e-05,-1.139731196810393891e-05,-1.233700853548077076e-05,-5.550108960842313531e-05,2.147202254085411747e-04,-5.960893363196337716e-06,-6.615496407566060226e-05,-5.991575194390179587e-05
1.279516478169380684e-03,-6.866532016637505284e-06,-5.372724521097127471e-05,-1.447554257975582457e-05,-1.147150872321312399e-03,3.298398596193412150e-04,-2.079271004191832531e-04,-2.910608552708557193e-05,-3.895186046705805943e-05,-1.111510992467186249e-04
-3.124596669458161533e-03,-3.635973747155720566e-05,-1.768444743777439036e-03,-2.437361344229381412e-03,-7.768442973764032918e-04,8.017020092117585831e-03,1.026377285188417345e-03,-5.019445389014413113e-04,-2.553742148183562439e-04,-1.424718312732703234e-04
-2.514648209708620491e-02,-2.629320230599892141e-03,2.805408683175081731e-03,3.557444230097458332e-02,-2.165114687764848212e-03,-1.197810306926294817e-02,6.419240010274196093e-03,-6.407099207156911284e-04,-1.829149321304721510e-03,-4.102116676895392437e-04
-3.038034975145853869e-02,-4.156311506969212477e-03,1.228060025665782436e-02,1.779718618739481450e-02,-2.582213851143660283e-02,5.124233278894791549e-03,3.164091306747046639e-02,-1.433612265276200002e-03,-4.298066693423716576e-03,-7.524540618535500080e-04
-3.502657237197680934e-02,-3.782316475153508963e-03,1.645488276849732881e-02,4.823937626400916223e-02,-6.134292673424787679e-02,-2.506826687830831547e-03,6.075403155374552860e-02,-1.066046516429778636e-02,-1.028247092295017824e-02,-1.846712229795063106e-03
-1.704533894333810570e-02,-1.898807970139787527e-02,2.830922843436932054e-02,1.057060353396962887e-01,-1.433659320499229839e-01,-3.346691555791603961e-02,1.347471604292430070e-01,-2.665341806097881044e-02,-2.390056338731920763e-02,-5.342176502435420221e-03
-1.719722564692768157e-02,-2.489836297254571784e-02,1.482720206397964424e-01,8.465711647550402952e-02,-2.047765405254249882e-01,-6.955483589721968285e-02,1.761250570711599128e-01,-3.554780467529083249e-02,-4.614561219199420083e-02,-1.093381227705715955e-02
-1.490405799853153183e-02,-4.697072140762474646e-02,1.471583118947088487e-01,1.517691086469427630e-01,-2.441979928992024651e-01,-7.838268731574539461e-02,2.268238322851459099e-01,-5.297037504731800378e-02,-6.959366915524189956e-02,-1.873174900313277769e-02
-2.187635329410499846e-02,-4.389299511902440554e-02,1.437054615576200400e-01,2.815283836564742015e-01,-2.951734870770869046e-01,-1.276381929183656450e-01,2.691019374799086261e-01,-6.137310174692620773e-02,-1.114658086990032715e-01,-3.291584383948939485e-02
-8.565195487511140238e-02,1.151329605201059300e-02,2.077511634682292496e-01,4.156977151462299402e-01,-3.883089514249680185e-01,-1.577787289797537018e-01,2.619845049375522095e-01,-6.363947114652976356e-02,-1.487044382504442985e-01,-5.286313492721334689e-02
-5.028211068185937244e-02,1.252542372080330500e-02,3.537791104322834945e-01,3.616559920166411701e-01,-4.653332325141043557e-01,-1.415089480291301105e-01,2.218425918959864573e-01,-5.774774339738890372e-02,-1.602201304801330606e-01,-7.471095296309590572e-02
-4.667612607373861772e-02,2.047003261072978877e-02,2.769105180832434066e-01,4.142752771599005901e-01,-4.217352597744163933e-01,-8.477150226339388861e-02,1.916135516497583513e-01,-5.366833337031064882e-02,-1.995024820867890847e-01,-9.691567593497953104e-02
-6.293569206600292676e-02,6.458033912150705491e-02,2.260653221504765054e-01,3.533512908086051674e-01,-4.386223184648744278e-01,-1.465347271392931222e-02,2.834820777944218051e-01,-7.348448296205759012e-02,-2.110397029700894211e-01,-1.267433606980523653e-01
-1.616207707532679033e-02,3.338835077267966744e-02,2.505618877378753551e-01,3.292344593772694727e-01,-3.624506798191855506e-01,8.528654859147910550e-02,1.515579649367821691e-01,-7.048650709988153740e-02,-2.758980406535976315e-01,-1.250319067680892848e-01
-8.390140847312904659e-02,-4.218381914862499860e-02,1.159273822162626977e-01,3.308907872623418900e-01,-2.501976303440495153e-01,7.797429888888975091e-02,2.451835846006663044e-01,-6.113740677691519715e-02,-2.454751475262782756e-01,-8.708064069915989747e-02
-1.713168966827815221e-01,-6.084248600650371541e-02,-8.677835539767750350e-02,2.748950266279134858e-01,-1.154576295774750322e-01,1.075932991232625147e-01,2.773239210946190636e-01,-6.307771950794564819e-02,-1.093956314593736989e-01,-5.294352821403620901e-02
-1.508643158775598014e-01,-8.340854806574887759e-02,-1.376481214819502974e-01,1.559457533892099901e-01,4.643821766933379017e-03,1.358492639146351155e-01,2.600374564796822940e-01,-3.845663582236033551e-02,-1.106623598161075583e-01,-3.543631448673335155e-02
-8.808948088982671010e-02,-9.510488996720919963e-02,-1.432877317867274625e-01,1.096797032697091334e-01,3.072130765819480400e-02,8.758369940039251178e-02,2.065531614406171668e-01,-2.572737914430911488e-02,-5.784379453912523450e-02,-2.448459544171589092e-02
-5.718401733151284166e-02,-6.349185631901543836e-02,-9.035179321264993901e-02,-5.133035098001598184e-02,1.123331616844611136e-02,8.886044491744954366e-02,2.089821266735385485e-01,-1.052990342031414304e-02,-2.207866810802285029e-02,-1.410929838790279424e-02
-3.703179554935979306e-02,-5.448665614795981244e-02,-8.451744158387015926e-02,-6.645348095317996084e-02,-1.341541114555461905e-02,1.460178028083698558e-02,2.428732922016990647e-01,-3.502772021232515662e-03,7.623337827142074447e-03,-5.690852908521113092e-03
-3.261677976033684062e-02,-4.874712630406970171e-02,-5.668726224972969047e-02,-1.993295322617511314e-02,-1.074044267891095979e-02,-5.240433126995311386e-02,1.985918552473132370e-01,-1.388914874441251387e-03,2.591650368623189121e-02,-1.990548569928500197e-03
-2.086090985829774230e-02,-3.795532320605531779e-02,-1.250710821390127805e-02,-4.022958764657502337e-03,-5.541126489392408927e-03,-2.967474900169314242e-02,1.038383835255840826e-01,-6.024369026482335326e-04,8.044343717367090016e-03,-7.181148063054870615e-04
-1.269182240432407916e-03,-7.443965260484433806e-03,2.879698672675256189e-03,-4.166580540538372874e-04,-2.608077287438689048e-04,6.845631686325027651e-03,-1.320810405091815297e-03,-4.021672165730447358e-05,1.070409849635000190e-03,-4.409979817161133018e-05
-5.053210127204150353e-06,-1.023026224187445314e-02,-1.748574401490302023e-04,-3.575782531205284681e-05,-8.231162451622060317e-05,-1.196617335262286004e-04,1.178178657876187765e-02,-4.776932122422208875e-06,-1.123890078659988030e-03,-5.215492474276047924e-06
0.000000000000000000e+00,0.000000000000000000e+00,0.000000000000000000e+00,0.000000000000000000e+00,0.000000000000000000e+00,0.000000000000000000e+00,0.000000000000000000e+00,0.000000000000000000e+00,0.000000000000000000e+00,0.000000000000000000e+00
0.000000000000000000e+00,0.000000000000000000e+00,0.000000000000000000e+00,0.000000000000000000e+00,0.000000000000000000e+00,0.000000000000000000e+00,0.000000000000000000e+00,0.000000000000000000e+00,0.000000000000000000e+00,0.000000000000000000e+00
-1.529281754106375059e-06,-1.516028361244621038e-06,-9.920488789137907998e-05,1.580555565870284097e-04,-1.419065798842580769e-05,-1.818227233650345265e-05,-4.116961936529193703e-06,-1.493200930681591890e-06,-1.633010151568755044e-05,-1.492163872470542584e-06
-4.167525790398650713e-05,-4.944391676622336624e-06,7.243518630234668495e-05,4.003407156931259171e-04,-1.302165265729200856e-05,-2.766759410906540167e-04,-3.286908577950961428e-05,-4.512886565071173525e-06,-9.453499890798974434e-05,-4.541687414346766338e-06
2.330950861257273217e-04,-2.677119454206134584e-05,1.026101917570077827e-04,4.322711395927838172e-03,4.863667095159737632e-04,-2.966524409373510248e-03,-1.695399443290388332e-03,2.441865966936949115e-04,-1.856776630085765116e-04,-5.145972698057079331e-04
-6.910539167943945474e-03,-6.086653423912235150e-05,-1.584779019703113148e-02,3.034828840014940424e-02,1.265432296963205777e-02,-1.886656716037343404e-02,3.141878801918929123e-03,-5.736970391882389910e-04,-1.719931733642514858e-03,-2.165098339282013357e-03
-3.503749426634814729e-02,-8.501624448188839500e-03,-1.585665394869703593e-02,1.262584957042100497e-01,1.674405706367781965e-02,-5.368689358618732033e-02,-9.593961025932013290e-03,-2.542860302607489065e-03,-1.149106638150610218e-02,-6.291998808420790415e-03
-3.931063724010213506e-02,-1.533364204277385713e-02,6.636176778462661574e-02,1.639932791261525524e-01,-4.163273927003798003e-02,-9.078035141402603092e-02,1.781683958335819281e-04,-1.078375874176703240e-02,-3.142158361250835946e-02,-1.270502985397388212e-03
-4.649060668347959613e-02,-2.014341921874127084e-02,1.210179036771658195e-01,2.331589304578381427e-01,-8.559251462080694206e-02,-1.246779975429797710e-01,4.010032201376582256e-02,-3.392011858396005303e-02,-8.746446204189925466e-02,4.011962543097578188e-03
-3.585022780096964318e-02,6.849954559545904514e-03,2.309649975716289994e-01,3.288652732113909183e-01,-1.489667396903784080e-01,-2.532095677360993724e-01,1.024280121910419727e-01,-4.549914940488346965e-02,-1.549230622978332861e-01,-3.065949060344228677e-02
-1.723324577496913174e-02,9.388729195104967076e-03,4.015899330384664068e-01,4.045685127873949183e-01,-2.173002294045530969e-01,-3.086382880418651609e-01,5.029907747696039239e-02,-7.264871356687774284e-02,-1.970302987353010904e-01,-5.299547697435558896e-02
-8.767157339217507284e-02,4.621631279356345351e-02,4.686004467888603142e-01,4.509657903951588276e-01,-2.792526067405797230e-01,-2.941156665756458066e-01,6.432450010091775305e-02,-1.186802226323634274e-01,-1.948541137459978145e-01,-5.553286699172822055e-02
-5.769831688196664504e-02,2.611696671168775921e-02,4.376726661727340928e-01,5.244011387572952154e-01,-3.142743251309314534e-01,-2.541593598394000786e-01,4.041611857190323398e-02,-1.374965406146097524e-01,-1.794333106469756522e-01,-8.554503709971351955e-02
-9.440033392057822770e-02,9.275079631133789637e-02,4.457029771971982024e-01,5.381309357451530273e-01,-3.899637804400598595e-01,-2.483696265257346880e-01,-5.093980154804038374e-02,-1.890580611036306591e-01,2.386538335978301284e-02,-1.277184890753943480e-01
-2.002337890517841626e-02,1.878524773196520170e-01,3.886647688151768643e-01,5.781378400743663049e-01,-4.206352673944195319e-01,-3.092189427602177743e-01,-8.497029284626873846e-02,-2.172380399976407417e-01,1.179744137174313784e-01,-2.205435780228514608e-01
-1.610494049084571638e-02,2.614302898963730692e-01,4.171548340651861642e-01,3.925991557316836911e-01,-5.233331835937401477e-01,-1.431994179961398606e-01,-1.163741968274454586e-01,-2.133791018540368289e-01,2.504649974215243935e-01,-3.092584363524891744e-01
-2.101940709565993867e-02,2.541599343797070754e-01,3.315357546915365106e-01,3.171073863785955349e-01,-5.377208156873808376e-01,1.250383818030336436e-01,-2.566941604429802057e-02,-2.642406811673447820e-01,2.039508188487762774e-01,-3.831419561068897250e-01
-6.731302194330657240e-02,1.438798497500542728e-01,3.021903243730185706e-01,2.901220430348169788e-01,-3.587980580351617932e-01,2.727022177444980988e-01,1.006044044933620402e-01,-2.688199563882825993e-01,1.885303967517648616e-02,-4.334208427041144618e-01
2.791348912704401386e-02,5.837249572559305433e-02,1.937038631330870175e-01,1.919157196553659406e-01,-2.395673811297743816e-01,3.208006941544852553e-01,1.926371983145578060e-01,-2.054048024412293005e-01,-1.721573751839652611e-01,-3.682139013551129492e-01
-6.516433810600968934e-02,4.849467548418722601e-02,-1.931717054578717743e-03,2.554905790639723229e-01,-1.468641838491527296e-01,2.444392499545035846e-01,2.783192916778426951e-01,-1.679089093421421985e-01,-1.856517308124631949e-01,-2.592229170161230445e-01
-9.433402263815029998e-02,1.470599348748567736e-01,-1.206493559780955765e-01,2.520296598467912375e-02,1.240497063173278264e-01,5.155881724383318265e-02,3.890041954605418795e-01,-1.358964201596621346e-01,-1.751455374174381019e-01,-2.108502836878682896e-01
-5.791329183123448965e-02,1.160346081832744902e-01,-1.746325183070761566e-01,-1.841017942434232113e-01,1.914461315334376745e-01,7.612178766442224964e-02,3.768788418788123762e-01,-9.835321356150952821e-02,-9.521526048900504080e-02,-1.502652908276846944e-01
-4.794549127512490877e-02,9.747550844777333467e-02,-2.084762730723696833e-01,-2.898450349388852487e-01,1.622897810501116866e-01,2.360924538990706312e-01,3.623825313558911021e-01,-4.265998334771716610e-02,-1.545860410288069642e-01,-1.147274510899377875e-01
-3.925630344888669104e-02,3.696384070319463228e-02,-1.867595911548279586e-01,-2.639930873252581134e-01,1.022594685727062080e-01,2.154878472162116698e-01,4.014707863888996031e-01,-2.178628739145429746e-02,-1.812721127670058885e-01,-6.311456079357806448e-02
-3.908511529130039019e-02,-3.358237763585945890e-02,-1.489763490177755667e-01,-1.962032869338824481e-01,6.468880970193026381e-02,2.612816346569877823e-01,2.899516697938519516e-01,-1.355592366376645770e-02,-1.557084586377290025e-01,-2.881060297245611676e-02
-3.977407488654451095e-02,-6.819916489877768384e-02,-8.073569533345817395e-02,-4.933252719220453802e-02,4.515413146768584851e-02,1.647137757204111819e-01,6.930090235069120974e-02,-6.309884020951956295e-03,-2.423587129777170224e-02,-1.058159190907976936e-02
-1.504746525994323479e-02,-4.620354058154801935e-02,-6.142590551046274439e-03,-6.342500668184921503e-03,3.129803568387648158e-03,6.066366162810672702e-02,1.506316878280135850e-02,-4.860339380069352813e-04,-2.308556440534394790e-03,-2.325946540031938181e-03
-3.396988984976537923e-03,-2.039335872719403447e-03,-5.278042466655644832e-04,-5.944324255416132217e-04,-1.887165773841315355e-03,1.062125612424011899e-02,-6.728514502135383296e-03,-6.440870422633987826e-05,5.055201651228596708e-03,-4.378072653625513411e-04
0.000000000000000000e+00,0.000000000000000000e+00,0.000000000000000000e+00,0.000000000000000000e+00,0.000000000000000000e+00,0.000000000000000000e+00,0.000000000000000000e+00,0.000000000000000000e+00,0.000000000000000000e+00,0.000000000000000000e+00
0.000000000000000000e+00,0.000000000000000000e+00,0.000000000000000000e+00,0.000000000000000000e+00,0.000000000000000000e+00,0.000000000000000000e+00,0.000000000000000000e+00,0.000000000000000000e+00,0.000000000000000000e+00,0.000000000000000000e+00
0.000000000000000000e+00,0.000000000000000000e+00,0.000000000000000000e+00,0.000000000000000000e+00,0.000000000000000000e+00,0.000000000000000000e+00,0.000000000000000000e+00,0.000000000000000000e+00,0.000000000000000000e+00,0.000000000000000000e+00
-1.711922171782938459e-04,2.457042666478394602e-04,1.638620037732733308e-04,-5.899848716013621241e-05,-9.921566547952876381e-06,-2.071665321295747264e-04,3.359754212673660644e-04,-7.223478997237440765e-05,-1.963861056286441233e-04,-2.964199307150289879e-05
-1.487254201090161749e-04,3.720497089034716792e-03,-2.712399031844315699e-03,3.711805967121743766e-02,2.977168212162295633e-03,-1.768777812409617206e-02,-1.042137408782774395e-02,-5.049313058389398476e-05,-1.150809301572848845e-02,-1.286862162224827917e-03
-1.637622798249047801e-02,2.865298315625513202e-03,-5.423177021312317048e-02,1.658111775617965022e-01,3.432424762206320867e-02,-1.015012896692151639e-01,-1.669037763789059945e-03,1.929830289201552376e-02,-2.475327056758364758e-02,-2.376743019529903647e-02
-4.458101151114365890e-02,2.088796837619551552e-02,-4.802965396551110711e-02,3.640036895396541738e-01,4.770361119685383178e-02,-2.260827434901173383e-01,-6.046467741273267582e-02,3.993445432518778759e-02,-4.102152550669327380e-02,-5.235011155169299463e-02
-4.275599075896605733e-02,-6.698078130297124757e-04,9.605563623677675078e-02,3.864157185702900010e-01,4.930554668416597258e-02,-2.817469309923674170e-01,-2.852499007313903309e-02,1.909064853810874896e-03,-9.272922712351965024e-02,-8.725901958402086656e-02
-3.747139297656639639e-02,-3.565082046325427495e-02,2.037452402809880880e-01,3.708506144295850016e-01,3.111385504096466151e-02,-2.187522291719982970e-01,1.379268961659642356e-02,-5.821962818846142251e-02,-1.321041393758390914e-01,-1.373041891920107616e-01
-3.742229868236198603e-02,-1.039452507861770708e-01,3.894263758859535796e-01,2.977262185001564587e-01,-6.092964281497273600e-03,-1.469714701110469979e-01,3.469986112712604973e-04,2.759743988834550965e-02,-1.880543004521873229e-01,-2.326107485724458745e-01
-6.861989533846252209e-02,-9.880393077210446184e-02,4.230972493002009838e-01,3.707739425669802635e-01,-2.943473939562764666e-02,-6.154329192496998946e-02,-6.984383184077169737e-02,-6.337164430041143486e-03,-1.732105952441722330e-01,-2.860777429210047962e-01
-2.821013905170272063e-02,-6.850247442669114839e-02,4.906560456808986559e-01,3.537532462344762374e-01,-7.878395571344623538e-02,-9.823761585417445374e-02,-8.597181289760612299e-02,-1.177830474280400774e-01,-1.754678764842821370e-01,-1.914523700593712408e-01
-1.666530369476083503e-02,-4.058029780971075112e-02,5.025703426048560019e-01,1.286257871232922567e-01,-1.650267102236917249e-01,-8.016831386932156411e-02,-2.502918250963500624e-01,-1.732151999139810439e-01,2.448803862161109957e-02,7.026348225819223359e-02
1.994746889098911180e-02,3.583519440257216387e-02,3.758393149754674090e-01,1.225457013261234823e-01,-3.159686742630052891e-01,-1.692026486788622275e-01,-2.180322492217484920e-01,-2.552051196951060641e-01,2.358531944579038697e-01,1.683878178058909048e-01
1.481523263922819855e-01,1.020469057516550371e-01,4.020847890115744061e-01,2.161636571539314045e-01,-5.058756455941468833e-01,-2.320505280780796875e-01,-2.620746700783990746e-01,-4.050501822724178469e-01,3.405969694536953307e-01,1.960063782602295412e-01
2.406410325230430303e-01,1.821230439230114850e-01,4.044619983829964016e-01,8.610007316735682203e-02,-2.736402046678124145e-01,-1.785868394325879904e-01,-2.219917151678284795e-01,-4.319015797529358047e-01,2.901486624596599784e-01,-9.735447143450504104e-02
2.264812610053001107e-01,1.726065256620563648e-01,3.352372034699825920e-01,1.435931803343978019e-01,2.818941884408712045e-02,-6.144777372165911855e-02,-2.134186047859462643e-01,-4.287525645547174413e-01,3.118540580312714194e-01,-5.143427042843566888e-01
1.867706679824929494e-01,-2.307332004186996369e-02,3.663809131942463715e-01,2.610896553685699284e-01,1.132996059129333516e-01,-6.799028753476046849e-02,-9.728790027583411604e-02,-4.096985321419374104e-01,4.538118309969956798e-01,-7.833026334604362706e-01
2.662657049267965204e-01,-1.406558158516091894e-01,3.999904339809722820e-01,-6.700699811177855680e-02,1.132285713921306614e-01,1.371598060916487394e-01,9.200030036260892219e-02,-4.260366886885770810e-01,4.294936047723608152e-01,-8.044389188742442354e-01
2.544039315379104105e-01,-9.017821326406925964e-02,2.582869349199769515e-01,1.829997622974436147e-02,2.622470361976267927e-01,2.421264738058082622e-01,1.800235246918256704e-01,-4.490490291102982590e-01,1.608773039672475591e-01,-8.370379389755548960e-01
1.324666089612551167e-01,1.092249455528605251e-01,3.776133396072794968e-02,-7.918516278384521434e-02,2.870510022200472577e-01,1.098922875294105206e-01,2.733384310134531203e-01,-3.834144047851701931e-01,1.540653582116635334e-01,-6.412003998802632276e-01
4.722033909141443164e-02,1.995517314357644623e-01,5.936946441099543587e-02,-2.742689229174662957e-01,2.577712480064828227e-01,2.513579857988229027e-01,2.129508982957619700e-01,-3.189068397829293300e-01,7.084107821161456098e-02,-5.058869825503791162e-01
1.404442212750567354e-01,2.633592689217983396e-01,-6.353127585836500224e-02,-4.240616459878090438e-01,2.751120694832648872e-01,2.658240939925772262e-01,2.922396159856986975e-01,-1.914118519189887957e-01,-1.373820813254939266e-01,-4.205924145676992465e-01
1.237182602851146507e-01,2.149860457707950534e-01,-1.836834403014763473e-01,-5.412627404890785199e-01,3.359944289028074516e-01,5.267013827346409549e-01,2.407093179653878035e-01,-1.124050631584722487e-01,-2.791727486376728851e-01,-3.255854430720318549e-01
-7.502018507000740577e-02,7.642705559145508698e-02,-2.034434992317584456e-01,-4.037261681542366198e-01,3.818941312799374321e-01,5.735629048929341556e-01,1.683171612510400428e-01,-6.332333226709926932e-02,-2.144087597822623981e-01,-2.402793085099984571e-01
-8.428402361053946579e-02,-2.666118348488300330e-02,-1.492147213590550026e-01,-1.583293586969998223e-01,1.491771096068514879e-01,4.346647763730036029e-01,4.158451931988819267e-02,-2.544721909024411088e-02,-6.303858295280073687e-02,-1.184513161052209301e-01
-3.286809003219444414e-02,-5.157215811689683238e-02,-2.755118952490359652e-02,-2.457684729100204774e-02,2.769220852618476184e-02,1.186975382833028447e-01,-3.283092507488308796e-03,-4.940842556871336347e-03,2.976413575186860963e-02,-3.136166253199944992e-02
-5.887854903383212511e-03,-2.051148595920566399e-03,-9.184240980123874187e-04,-2.514110683642030095e-03,5.253640393864801410e-04,1.497868229691229520e-02,-8.056961127648826909e-03,-1.136887751670344728e-03,1.039826719059547440e-02,-5.336926366616868457e-03
-1.128198118602475187e-05,-7.060348294819723587e-07,-7.221934492547642183e-07,-8.504434648670091741e-06,-1.850289303013829235e-05,1.236813059998894868e-04,-4.106157697675666251e-06,-7.248359811457491745e-07,-6.510965758715871936e-05,-1.402311759033947821e-05
0.000000000000000000e+00,0.000000000000000000e+00,0.000000000000000000e+00,0.000000000000000000e+00,0.000000000000000000e+00,0.000000000000000000e+00,0.000000000000000000e+00,0.000000000000000000e+00,0.000000000000000000e+00,0.000000000000000000e+00
-5.681468192191360166e-07,-2.113818735202224592e-07,-3.113997684847864126e-06,7.826070928289426834e-06,-1.570639973902094425e-07,-1.733538009158274592e-06,-1.580056647074364558e-07,-3.268334036335398598e-07,-1.399520532944031400e-06,-1.575829428687070285e-07
-4.055762709665532259e-04,-4.818702372046305450e-03,-3.674767696319432460e-03,1.144925826906737117e-02,4.256887555593589382e-06,-3.189898586375532370e-03,-2.696891991743805873e-04,2.752617063111831471e-03,-5.792596855078430270e-04,-1.268238409344739403e-03
-2.048173442252847112e-03,4.465023128023107128e-03,-1.399801054217320040e-02,8.612668868803505240e-02,8.566189701700262227e-03,-4.750044525291828579e-02,-1.332671958401025758e-02,1.636718616249848920e-02,-3.046088967252915877e-02,-8.190849186373149599e-03
-2.518968890813210251e-02,7.773008394924128643e-03,-1.969843224563161410e-02,2.626195387915003510e-01,8.168880032216789544e-02,-2.050351954755802730e-01,-1.041034726399461471e-02,3.320592581565857265e-02,-4.063311240270980895e-02,-8.432049702820232362e-02
-2.902877524019953186e-03,-2.395247969859626291e-02,3.130973246333689647e-02,4.857163115319478863e-01,1.062394811519866145e-01,-3.735507941829037670e-01,-6.271313099463970975e-02,6.639907246670843921e-02,-4.248387711099384928e-02,-1.840614381028256308e-01
-1.831619670802435776e-02,-4.900785065120418643e-02,1.860313713400968960e-01,4.910768901976751422e-01,1.084846068092988614e-01,-3.918575880416220736e-01,-7.257297804001813790e-02,1.214811029699196243e-01,-8.341215109352401180e-02,-2.919072067825949635e-01
-5.853797396260105451e-02,-1.369453211709033835e-01,3.293464624595611179e-01,4.034851046436921385e-01,1.533750698071123797e-01,-1.940706703513967735e-01,-2.621997157119669228e-02,8.367872490098554605e-02,-1.157785185455431076e-01,-4.383329062096962270e-01
-1.158193296743398881e-01,-2.124142765246357645e-01,3.406118726228567484e-01,3.296917027911969167e-01,1.117570073062998659e-01,-2.143136024895674410e-02,-7.768957605978797643e-02,1.721523444742440734e-01,-7.593779468611268346e-02,-4.509205900007280943e-01
-1.114466982625388486e-01,-2.641200352776735261e-01,2.600376413373895468e-01,3.712391596741674848e-01,4.610550158329905501e-02,1.061903274698814681e-01,-1.096221546746859177e-01,1.295318360588431639e-01,-9.634349631341324049e-02,-3.315720815951704870e-01
6.866582592290218154e-03,-2.249948862651375281e-01,2.565109807210885218e-01,1.514477249094624833e-01,-1.312426660461091243e-01,7.957562421739847180e-02,-1.769788680246117685e-01,2.515529763044065392e-01,-3.155795146574034982e-02,-1.811795169428431218e-01
2.683324017934764563e-02,-6.217327313370108605e-02,4.437945364316424335e-02,1.741669717766147069e-02,-3.461181822831395638e-01,7.726651266119248518e-02,-2.147948008960542943e-01,2.560573587707894450e-01,8.347005068140106454e-02,1.176629431997047587e-01
3.159084165138367111e-04,-1.019635299057863737e-01,-2.850149486956153611e-02,9.190786526883301666e-02,-4.619910504941761586e-01,9.581895701339199212e-02,-2.207461200925331379e-01,1.118407159065782641e-01,1.717203412995105538e-01,3.415984074577351759e-01
1.629218465477742794e-01,-1.194544520096208345e-01,1.518496089482347933e-01,2.382950407229573742e-01,-5.431194898705496987e-01,3.752720878955939643e-02,-4.086583794419040849e-01,-7.194859027713038091e-02,3.346065114925211165e-02,5.191265554421476969e-01
1.481578751607779409e-01,-5.038050422923221611e-02,1.380380678418931528e-01,2.389685182858519719e-01,-5.044119234120506556e-01,6.792213229744316350e-02,-3.215018803534866465e-01,-2.509955773228924047e-01,-2.847917293808214026e-02,5.626824646706619637e-01
4.965707245984956469e-02,-2.343994151045995789e-01,8.783216302334517778e-02,1.414446381871265479e-01,-5.210016409788662539e-01,-5.766786199650365818e-02,-2.192124076829118917e-01,-9.657486490382036215e-02,2.468039838956094245e-01,6.031183331017093696e-01
1.384158114114917015e-01,-3.723888886918780283e-01,1.338154299529774605e-01,2.614159935675177682e-01,-4.064643124172372946e-01,-2.008919901505820393e-01,-1.882314421479936994e-01,-6.787985787015445027e-02,2.773376220032296446e-01,4.248716343434822407e-01
2.737774720606567236e-01,-3.195271743098471173e-01,8.980718998562269018e-02,9.155170052634863109e-02,-3.241826144128031051e-01,-2.630516231362400523e-02,-1.600634909340756529e-01,-1.658531491246504896e-01,1.828074948847584202e-01,3.579877336382973896e-01
4.025094654811021688e-01,-1.840289264288128557e-01,4.484524894793935623e-02,2.152463010928495346e-01,-3.438302344099428143e-01,1.319841291011725481e-01,-1.565928491564984038e-01,-2.379788825063394730e-01,-1.167689459917184702e-01,2.446146938707497998e-01
2.082153649846476273e-01,-8.438968915735785281e-02,-7.956711079597159064e-02,3.052430697598634488e-02,-1.108255384318587583e-01,2.271826907456521161e-01,-1.483698739324044447e-01,-1.253730488405239429e-01,7.015455725947179755e-02,1.244834119268971653e-02
7.207469697469108538e-02,1.876810030145675823e-01,-3.209971252306923623e-02,3.951770648641556721e-02,1.978539113163556296e-02,1.365370121340473974e-01,-3.688151925469883297e-02,-1.343363720377863946e-01,1.905193861585734519e-02,-2.713301445414709745e-01
2.257916361212536915e-01,1.791811244624003097e-01,-7.318933328609597555e-03,-1.209348397717320139e-01,2.287053925404393950e-01,1.603889497098894279e-01,-2.838302573082920107e-03,-1.277297020733175192e-01,-8.888885482972705421e-02,-4.463564702574239762e-01
3.250975728314979829e-01,1.178821068961185409e-01,-1.834340297128648767e-01,-4.785172235613173175e-01,5.083736796162832139e-01,4.786532897030817413e-01,3.025402744665259963e-02,-9.990649919181394945e-02,-1.539286206228088760e-01,-5.444743034047881958e-01
1.148482280971026143e-01,6.049737703783135412e-03,-3.007743081478524427e-01,-4.988747499450419953e-01,5.668725457348868790e-01,7.232396237348086565e-01,-6.642392895335233471e-02,-8.338867015069748034e-02,1.755520116809492631e-02,-4.791036792417200374e-01
-1.542926158862513719e-01,-4.235843610506385276e-02,-1.624262268003072163e-01,-2.370857975093108305e-01,2.301114374733621570e-01,8.053681107436816422e-01,-7.734161215281339097e-02,-6.928791488737769122e-02,-3.060583433177305884e-02,-2.620811105441444022e-01
-1.139671202943873390e-01,-4.692857422329241301e-02,-4.672554922985369674e-02,-5.672734062961885815e-02,4.462011356571845416e-02,3.689548997023991417e-01,-4.722265250635608591e-02,-3.129536479058669246e-02,2.794743668713092766e-02,-9.865584828115295246e-02
-4.232774877625201243e-02,-6.047545151062037536e-03,-2.662868234533178995e-03,-8.693523113338165118e-03,-7.047341958528392444e-03,1.146878597788748427e-01,-2.048361470493208214e-02,-1.182161885928122158e-02,6.755277545300139748e-03,-2.235887652624789224e-02
-1.979879006682522084e-03,-1.470569009467825471e-04,-3.361778989026608603e-04,-4.453832466717473604e-04,-1.997690203335433876e-03,4.126651577292277627e-03,-3.659727059820381059e-03,-1.456929545619628508e-03,7.116941631831763884e-03,-1.220749347144882858e-03
0.000000000000000000e+00,0.000000000000000000e+00,0.000000000000000000e+00,0.000000000000000000e+00,0.000000000000000000e+00,0.000000000000000000e+00,0.000000000000000000e+00,0.000000000000000000e+00,0.000000000000000000e+00,0.000000000000000000e+00
-8.638307100808720329e-05,-1.142737108382190788e-04,-1.288485861464205547e-04,5.837131375600174404e-04,-1.650021332247509232e-04,-2.311216197586059924e-04,-3.570382801282788557e-05,3.328204830566680941e-03,-1.292865566505657735e-03,-1.857719452632126522e-03
-2.245401534819794521e-03,-4.088587254781291848e-03,1.300944344542382530e-02,3.612220265235632690e-03,6.294970379131037755e-04,-1.466522954406099775e-02,-1.801452089375832517e-03,1.688690067993637786e-02,-1.925301253173866342e-03,-9.412089752297153611e-03
-8.106481109445912853e-03,-5.082175988259269098e-03,3.756544767346819014e-03,9.157912640190334075e-02,5.438541340496351462e-03,-6.916006096320001517e-02,-2.242258586980378637e-02,6.495788432306789928e-02,-2.331846008187044711e-02,-3.764233282023497079e-02
-4.403603549571552533e-02,-2.402129120440891878e-04,9.535670546052894825e-02,3.896412179608502169e-01,4.486882406866812140e-02,-3.299821860957008468e-01,-2.370382537453376987e-02,7.493781847228993265e-02,-5.274762574682589911e-02,-1.540946803375168594e-01
-1.641917793454275923e-02,-6.026707656549926823e-02,2.194088589708234616e-01,4.797838220846926682e-01,8.402218986217764585e-02,-4.255554814140091735e-01,-6.240623032066611175e-02,1.129399733823264751e-01,-1.180228958007114443e-02,-3.197045884852289244e-01
-5.445194547436813665e-02,-1.284388908467856139e-01,3.174277882810286888e-01,4.405861946441960719e-01,6.756213077571007752e-02,-2.739985969069150262e-01,-1.142372145985437459e-01,2.228209374042867674e-01,-8.062868575831508289e-03,-4.692075347027649945e-01
-9.774159520364449072e-02,-1.967852635262456462e-01,3.216687807083987161e-01,1.332065155534384593e-01,1.276757937274411170e-01,4.433130025755271583e-03,-9.331314517620196980e-02,3.901086590683648381e-01,5.351413812430719924e-02,-6.427670133015783716e-01
-1.450647111669575995e-01,-3.244354964302655908e-01,3.044471960067016147e-01,3.278758958527117073e-02,1.945473927958163082e-02,2.199799341188602986e-01,-1.509941307068360938e-01,3.257655926593836515e-01,1.925967365368787543e-01,-4.745374498825237208e-01
-4.851458619969709063e-02,-2.756911262417089947e-01,2.492316274965919454e-02,8.899443396497341841e-02,-1.234365075982086363e-01,2.877871368304690813e-01,-1.853380656927988146e-01,4.610455742383472999e-01,6.834750606527223438e-02,-2.981175281160943213e-01
3.214697712781835331e-02,-2.778282814470141582e-01,8.988454409657133104e-02,2.299460542403988783e-02,-2.559694778106939572e-01,1.955747455682051439e-01,-2.325454378989467163e-01,5.401722259045049768e-01,-2.198502425140582556e-02,-9.244487671265455564e-02
1.302782469012798428e-01,-1.741460706680876269e-01,1.517830790045272271e-01,2.001253718240039378e-02,-4.379779051944551749e-01,1.871622694674038856e-01,-2.592525695337482006e-01,3.574976218283917873e-01,-1.979261085463956404e-01,2.225688995593761987e-01
7.230053301509173358e-02,-5.496464504509033372e-02,3.829506535954932400e-02,3.132798735492983710e-01,-7.216926013789196626e-01,1.629204947199025810e-01,-3.451885502775772774e-01,2.654720022138594704e-01,-2.092095637969960953e-01,4.787873916417766940e-01
9.228393198807839648e-02,-1.132763988452302056e-01,1.172630349798372967e-01,3.146906782171728922e-01,-7.100520295945568217e-01,-4.181738130981747792e-02,-3.668937067616093173e-01,3.503015503858305374e-02,-8.315203899415384015e-02,7.559237552827591244e-01
7.623576544888706341e-02,-1.398341809148500869e-01,1.096822460261875493e-01,2.908151084971732914e-01,-8.694532772139896837e-01,1.234429890663250873e-01,-2.509080862337761952e-01,-2.602563078618679304e-01,-1.804685783969792734e-01,1.100744321584068874e+00
1.077672863437277029e-01,-3.003972893056761073e-01,6.608361647105255587e-02,2.390545268538532275e-01,-9.264702928923415071e-01,-7.444884506010410186e-02,-2.406184511539113391e-01,-1.211722963141084602e-01,2.742431909145807631e-02,1.222777425967218834e+00
1.450740151348599849e-01,-3.141513889446041485e-01,-8.638004448328668802e-03,4.783112284325454627e-02,-9.401620140873460096e-01,3.212768920056280342e-02,-2.942980011252595562e-01,1.711938031973032348e-01,-9.418605411855056342e-02,1.255208832349181902e+00
3.113188737521917493e-01,-3.048302099853794078e-01,-2.929145605459582691e-01,1.720791983682298243e-01,-6.380491127764768011e-01,1.778991065588965970e-01,-3.154940621270655998e-01,3.356910834801731802e-01,-1.854839591749522787e-01,7.397836424513454245e-01
4.096367193336717949e-01,-1.893720544579264309e-01,-2.365255643312818845e-01,1.868912604466185789e-01,-5.142928342855843660e-01,1.466658694516099759e-01,-3.944146296518478145e-01,3.154833047645667632e-01,-1.058151910624238745e-01,3.817431197934537113e-01
2.241036281697115218e-01,-4.142345079560814936e-02,-6.179177995614974078e-02,1.558790263938081289e-01,-2.874871903718380084e-01,1.619222547653924593e-01,-4.419346316801690544e-01,2.488455901437329199e-01,-5.986967690091817007e-02,1.017562302326579377e-01
7.111794721131188546e-02,6.573806690178626844e-02,-1.865401583202113411e-01,1.801898527478185130e-01,-1.906350774721878583e-01,1.488019338520731316e-01,-3.363842047082160613e-01,1.610407771211441463e-01,7.013684525097661770e-02,1.653401741584304557e-02
1.577515877770276076e-01,1.419170824178054603e-02,-1.004894283492137885e-01,-1.329485146075407576e-01,6.310662829294277909e-02,2.003754836742367429e-01,-2.269465536104536552e-01,-1.631601866789793298e-02,1.849437709469514690e-01,-1.436686636976755860e-01
3.317724209559689830e-01,-5.295726956605019409e-02,-1.202108239426128017e-01,-3.506570607348827862e-01,3.397412840146839530e-01,3.823137627042430542e-01,-2.125608440682721090e-01,1.212850307819867898e-02,2.051101854903957800e-01,-5.346801579316101671e-01
2.617307461081128106e-01,-9.944532274234559044e-02,-3.422293173150592338e-01,-5.125985185069870109e-01,4.339493545826145771e-01,8.205646135032695909e-01,-2.486842344008326211e-01,-2.659713284443122883e-02,2.665073156698247181e-01,-5.531975040541470268e-01
-1.023626588596776438e-01,-1.301632455621285767e-01,-2.328708119809882460e-01,-2.848443104905566403e-01,1.743129723673715326e-01,1.062998554138351981e+00,-1.398907047841298490e-01,-1.156735327682024556e-01,1.238348330198604935e-01,-3.553410950798975843e-01
-1.429433357207511024e-01,-6.312664347846538848e-02,-6.705968083827214266e-02,-7.310417450828810004e-02,1.872497554243637147e-02,6.859270909504616709e-01,-8.743631015474630230e-02,-4.438910262410093038e-02,-6.148638501836023451e-02,-1.651064341499133281e-01
-5.880685903621678257e-02,-4.127114372978947510e-03,-7.464316016021583719e-03,-1.119374524153557773e-02,-6.945998873997354627e-03,1.726292143043750005e-01,-3.079098297374649115e-02,-1.471855923398392336e-02,1.378181892973556061e-02,-5.236345748562989955e-02
-1.257758128790909891e-03,-1.163521498074578477e-04,-4.854247077111098550e-04,-3.174737902261056625e-04,-1.904342945182119695e-03,-1.857760574671114915e-03,-8.519322894388971917e-03,-1.280084652947527119e-03,1.699887758239141192e-02,-1.260357738666096749e-03
5.210225046506217032e-03,-2.111733817421122123e-06,-1.168148334690818067e-04,-2.219769056441434921e-06,-4.660062593599962043e-05,-3.530804434604541313e-06,-7.247824749370439034e-06,-3.509162507166208467e-03,-3.654660110611237463e-06,-1.518882287766479310e-03
-2.759937355573798012e-04,-1.956975943694531711e-04,2.012083725894482991e-03,-6.017120333462660196e-03,-4.576304082489940014e-03,-7.280641435831326346e-04,-1.251195308319210417e-04,2.904946198818488673e-02,-1.649526223009396874e-03,-1.749372007077547655e-02
-2.604108093926608622e-03,-1.795699222905577670e-03,1.161915901630648741e-03,-1.236099028791410063e-03,1.718487600303815433e-03,-1.352391465282853228e-02,-2.241385519033787122e-03,6.217864479708309217e-02,-3.656963637443173820e-03,-4.000087814408852249e-02
-1.694449422478999309e-02,-3.369825109809753642e-03,1.933448296128589469e-02,1.187272357502939940e-01,-8.870577632623574335e-03,-1.078435317250892450e-01,-2.256948126295835536e-02,1.633145594818382895e-01,-3.071540402089918687e-02,-1.110629642172481363e-01
-6.612121857952396597e-02,-1.846588113558454702e-02,2.104860244350093279e-01,3.954795982161335433e-01,-4.503971064374130001e-02,-3.849876682355544144e-01,-2.989999939471600990e-02,1.824866766116352290e-01,-8.734917690868310505e-03,-2.352029035827888637e-01
-6.663814391806431592e-02,-4.943920296548180715e-02,2.794592265214738136e-01,3.476052821668792481e-01,2.690879476216883476e-02,-4.169199796485516529e-01,-7.833482208213787823e-02,2.536668044462043747e-01,1.003818635737844661e-01,-3.966898228562711903e-01
-7.730713055007751300e-02,-1.216280022352314860e-01,2.373448833209710618e-01,2.635917922049708650e-01,1.513802823080068367e-03,-2.707272769317903838e-01,-1.614329506897549393e-01,3.394913024992792239e-01,1.905012303684762709e-01,-4.013476508099039775e-01
-1.177022868761925384e-01,-1.673195863453773580e-01,1.715765880173437119e-01,1.427380638190406115e-01,4.128127027540685196e-02,-1.269663122229730268e-01,-1.805191141898672691e-01,4.749966047252708323e-01,2.378620523145145160e-01,-4.759472795171048598e-01
-8.747977406969581482e-02,-2.840927947819975041e-01,1.608589469942790506e-01,-1.030258843047554725e-02,-1.452143260722154050e-01,2.099444628098799670e-01,-1.307530162522910211e-01,2.856141526332454106e-01,2.763346585480440099e-01,-2.749097213786115268e-01
-6.733725780893189128e-02,-3.678056780354885813e-01,-8.991933805348555769e-03,1.884268578196066357e-01,-1.966985937095536430e-01,3.246394307951238067e-01,-1.624583292418370073e-01,2.131743085110184288e-01,3.100753620734067462e-01,-2.330241665976169885e-01
8.048865913080011439e-03,-3.419276572178273077e-01,2.147137881259761905e-01,1.992321111093160180e-01,-2.726476159525705878e-01,1.966962252478627604e-01,-2.458382745772634825e-01,3.348656816199693242e-01,8.144851656228700720e-02,-1.745916408301805278e-01
1.213538840482695919e-01,-2.354092454757459041e-01,2.042572444750234417e-01,3.267636189628691373e-02,-4.017557159716635407e-01,1.767156946632787717e-01,-2.751783114741410130e-01,5.180321980492962330e-01,-6.469508621012411143e-02,-7.599702399959208654e-02
1.197900580431121575e-01,-6.593213048446437685e-02,6.825344807645998546e-02,1.160032596541930028e-01,-5.242296059663551500e-01,-1.556788518142720318e-02,-3.132883285886706171e-01,4.596830872003875301e-01,1.384608553494823258e-01,1.682724189823469121e-02
1.288453705264203109e-01,-1.067943998255307080e-02,-2.741449026369392056e-02,1.361868781683600593e-01,-5.245553494431834940e-01,-1.889706235574225568e-01,-2.814832062711528082e-01,2.581144428438801319e-01,1.585293795745459644e-01,3.514270384056898400e-01
1.693365564423935654e-01,-2.336920657113590594e-02,1.722091715684255786e-01,3.834789946913420011e-01,-7.999611266569880419e-01,-3.342202199829498732e-01,-3.214739173850215126e-01,2.661980577989352947e-01,-1.839480186285446794e-01,6.717497087244813647e-01
2.386252605296853568e-01,4.109784610268261279e-02,1.419583273069255636e-01,4.708836758440809733e-01,-8.671030813011714189e-01,-5.295282411851455207e-01,-4.404179048410920005e-01,4.868808554800376220e-01,-1.847032781840452775e-01,6.423065402488962183e-01
3.842806147775540415e-01,-8.521478763664505629e-02,-8.037123297541888534e-02,2.283811363722104693e-01,-6.877199493897148130e-01,-1.714430854663021586e-01,-4.564196954953864127e-01,4.979100314107594016e-01,-6.116753057088113871e-02,4.317644989747096984e-01
3.454474767201513585e-01,2.218877944545413761e-02,4.075630349079614051e-02,2.007546964029153780e-01,-4.649500544678603076e-01,-1.111108154530957882e-02,-5.615939515995079789e-01,3.910503188770149685e-01,-1.950588807820103077e-01,2.325163934592727188e-01
3.699735229163500505e-01,-1.106449772134284887e-01,-3.475949793481190875e-02,3.441216208230933327e-01,-3.125205703496772847e-01,-4.254149375610345729e-02,-7.637316432669253308e-01,4.466541618212469533e-01,6.014198911506947465e-02,4.330688784605254277e-02
1.595200788327500174e-01,-1.480220340876781948e-01,9.998469556034153549e-02,3.497405513484879158e-01,-1.942730631310554124e-01,3.478262682130400796e-02,-7.550654173410277226e-01,3.041169914828782406e-01,2.966486558665025752e-01,-1.474330853518205919e-01
8.773285430832844511e-02,-1.315787150557882479e-01,-8.260475829262441116e-02,2.770574775600878059e-01,-9.779350767880098938e-02,3.115024119080866960e-01,-5.226314453170858298e-01,2.722303124050245438e-01,6.043132344185251498e-02,-1.743459532786714727e-01
7.983456695982274476e-02,-2.106101609009633224e-01,-9.043818573130461835e-02,1.607131950124039976e-01,-2.040200339677142663e-02,2.841377560713281292e-01,-2.884142640497535659e-01,1.055152791936983803e-01,1.061769107535676937e-01,-1.265130939118356002e-01
3.215432049548062610e-01,-2.712707417247364194e-01,-2.072657250347847147e-01,-8.656164284151507404e-02,7.357184343145556360e-02,3.861440353688624927e-01,-3.116737459419283152e-01,1.115549459032735141e-01,4.393301134561046206e-01,-4.553722875714644736e-01
3.330629457261778947e-01,-2.991239298947030445e-01,-2.171160725141854375e-01,-5.215135747539852984e-01,1.137057204425007406e-01,1.008605441968145389e+00,-2.919198225520538981e-01,-2.868080377915924184e-02,3.848920450396801085e-01,-4.819119496823944249e-01
3.127757799819469442e-03,-2.393474540752527913e-01,-2.669441388540799709e-01,-3.170414109935995040e-01,4.831878803807612699e-02,1.380809688839538696e+00,-2.433753594004308130e-01,-1.803874848945396514e-01,1.487368689981101999e-01,-3.338972554576374874e-01
-1.676804233291332158e-01,-1.021520934640128969e-01,-9.166647403456901211e-02,-8.736908556419011040e-02,-3.753286084016831115e-02,9.767126237464873739e-01,-1.354004953098262853e-01,-9.813607911213795276e-02,-6.552199040737584357e-02,-1.912531216850734961e-01
-6.643837138603565784e-02,-4.879384278152387906e-03,-1.040131389320571829e-02,-1.148891826975204263e-02,-2.690363567599456454e-02,2.710830198915497591e-01,-5.270053068048534406e-02,-3.079142619948285753e-02,-1.711979640333255448e-02,-5.035964310510862574e-02
-7.682658776745724359e-03,-8.748930103175463376e-05,-5.801767812191477042e-04,-1.511057522583081467e-04,-1.062812191066536075e-03,1.758986646408643509e-02,-6.468679432612678068e-03,-6.313204277030565366e-03,6.994925910979495759e-03,-2.238665863101208919e-03
-1.891908975904954090e-05,-1.797692744293186585e-05,-1.716144530510368111e-05,-2.131401560474786318e-04,-8.980400153822140988e-05,-6.411222327958543898e-05,-1.766280564149027213e-05,1.558409412389882842e-03,-2.078118883066940305e-05,-1.098851574545351047e-03
-3.531025558668652274e-04,-6.737099543544655548e-04,-2.453997731053205247e-04,-6.662742091652933650e-03,-5.897698194106221377e-03,-9.057525156546046390e-04,-1.956147992561457652e-04,4.247937835358649161e-02,-1.989064622870433639e-03,-2.555629384671951818e-02
1.548869931991310597e-04,-1.665847408487543084e-03,-1.303859055341217987e-02,1.961034739553722817e-02,-7.566331483699605467e-03,-6.849879707246764315e-03,-4.515105735201281091e-03,9.485957283415942520e-02,-1.525747531945873849e-02,-6.573157701538975828e-02
-2.214960320759910492e-02,-6.035988758348092599e-03,2.053723970532700047e-02,1.268206437998359581e-01,-7.243579046275336331e-02,-1.134589814128995899e-01,-2.033839373590200922e-02,2.700272490937433156e-01,-1.943735112331450299e-02,-1.635290238980893762e-01
-7.749227713251105598e-02,-3.641418735836724624e-02,2.022143618058553083e-01,2.808801101315775428e-01,-1.120904497564055025e-01,-2.997634153306019122e-01,-4.157209471068229467e-02,3.308894388919801921e-01,2.371071735659963445e-02,-2.703622038974441422e-01
-6.487198068196792233e-02,-9.357925105361819540e-02,2.503994073506283224e-01,1.787202161546697088e-01,-7.415115819771474215e-02,-3.386402653850979494e-01,-1.342111626853752238e-01,3.523024223867088911e-01,2.033419762509093009e-01,-2.793102041391367085e-01
-6.856394949690920726e-02,-1.077717958128732584e-01,1.156841861858207282e-01,9.521566358118015161e-02,-1.522463649883563641e-01,-2.000323746833720384e-01,-1.973391612850702581e-01,2.382754247387894597e-01,3.659483389747622550e-01,-8.916996721394433723e-02
-9.324305346829543650e-02,-1.779698220598601721e-01,-6.590470523927365216e-03,6.877842639658623969e-02,-4.339572779472791741e-02,6.275108355326550896e-03,-1.199563992634591625e-01,1.538655354505979456e-01,3.574689084745708567e-01,-1.452325055667255949e-01
-8.726759429432966175e-02,-2.753637940678781426e-01,3.245400822992300371e-02,-5.892152620769418314e-02,-2.169350256513704611e-01,2.880709263502403972e-01,2.220631508338216068e-04,-5.041167921269047725e-02,4.121558544514867806e-01,-4.400323274827758896e-02
1.180113989788033821e-02,-3.569772864537841817e-01,1.499709482523375603e-01,-2.440558520358225569e-01,-2.450778134282904919e-01,3.989453988804416706e-01,-1.939612306411137022e-01,-8.208976020049163491e-02,5.117913493908078371e-01,4.965310633850796712e-02
1.314533752359899887e-01,-3.197802448212242465e-01,2.332604187453303501e-01,-3.431526326759044565e-01,-1.780544490403329350e-01,3.543537019306401969e-01,-2.412564710141453794e-01,4.906170586363781810e-02,3.362944871983196138e-01,-2.217989142158386523e-02
5.640796470531191098e-02,-1.625133741650675590e-01,1.532563412208445552e-01,-6.061429091800405455e-01,-2.534262342042538640e-01,5.666909119848978493e-01,-1.795458872381973658e-01,9.605094990259990806e-02,2.545912401895684685e-01,7.463099678521789571e-02
1.587201053161478304e-01,-7.977608276127599873e-02,7.990249484168542027e-02,-6.111952135053048130e-01,-1.773481077411130646e-01,3.517669050567041045e-01,-1.582051873503776407e-01,2.523298251629252920e-01,1.727391128152388766e-01,1.106614816617764938e-02
2.408989792793459761e-01,1.028363789645640458e-01,1.909109680782646312e-01,-9.727971576800002740e-02,-3.443148103095716728e-01,3.343019029769105088e-02,-3.466459393444937809e-01,1.996553282857020661e-01,-1.398526139728000772e-01,1.603612344899648656e-01
1.425768075977915106e-01,3.123249256599729962e-01,2.747063301006888447e-01,3.619874089324353061e-01,-9.195991381541029908e-01,-3.453928125154035467e-01,-3.351296227001397954e-01,4.477438276586322985e-01,-4.038727494320822342e-01,4.646550228527447923e-01
1.093926577503874231e-01,4.339219699607519409e-01,2.954721447743010598e-01,5.683691841299616243e-01,-6.717751373099407619e-01,-5.985306506889657152e-01,-5.508936805971934580e-01,6.658663388548183848e-01,-5.122046158575312980e-01,2.603817889839580846e-01
2.321629923460494793e-01,2.821601668335542712e-01,1.069720445331131392e-01,4.395897958884841250e-01,-1.924522662478128643e-01,-6.206539767297037935e-01,-6.185801510404653758e-01,7.115141332770106297e-01,-3.123844463327038468e-01,-2.832829252692176808e-02
2.902182013178415954e-01,6.726939838991181919e-02,7.714241421408769839e-02,3.455375448681586859e-01,-4.374318902794770841e-02,-4.458531910435750700e-01,-7.123961526694204682e-01,7.055117938781576559e-01,-1.410661227074002377e-01,-1.426206972190220412e-01
3.083777477603483752e-01,-1.399218860788845886e-01,2.026750921744576994e-01,2.919129091116055008e-01,-3.640258361964555239e-02,-2.364942814390397774e-01,-8.161400633766888735e-01,4.904002129403643440e-01,4.429188411810552201e-02,-1.086990315898030551e-01
2.758680980088102364e-01,-2.657954036373441076e-01,1.337080752062878852e-02,3.922485125944047968e-01,-1.186169432806646190e-01,-8.175546066464375872e-02,-7.054773112550358771e-01,4.452240949134092518e-01,2.737863324490480421e-01,-2.288527266479715994e-01
1.227044636602631772e-01,-3.154014244050226679e-01,-2.244209847854587367e-02,4.589516100040271218e-01,-1.286184940290974466e-01,1.122420460162645850e-01,-5.587235343141926380e-01,3.824134704392095907e-01,7.245061026385064828e-02,-1.235766491563543290e-01
3.011349728966038891e-02,-3.656591265290708437e-01,-1.519713701646667470e-01,4.038796663419817468e-01,-8.290404877300018571e-02,3.301884117841363819e-01,-3.846370552298119527e-01,2.417222795605961927e-01,2.812266406746420366e-01,-3.019588949542796330e-01
2.171379211951961763e-01,-3.885504124551155125e-01,-1.827771038808280735e-01,6.171504227434532197e-02,-1.481272016317619622e-01,4.905558410250067669e-01,-3.579530226204226118e-01,1.237359880169320026e-01,5.946979718828609984e-01,-4.104350238061397760e-01
4.527490943740516416e-01,-3.228950417018661145e-01,-1.790216119407871953e-01,-3.777999139426763131e-01,-1.161682839782555293e-01,1.017648138143121272e+00,-2.891768636697610306e-01,-1.331493526139281292e-01,3.612706482087945647e-01,-4.134568128786712538e-01
1.203376905972783073e-01,-1.942283529853347512e-01,-2.207865000892059171e-01,-2.782487552347590043e-01,-2.757198130401040670e-01,1.556472631446088162e+00,-2.027076244105342484e-01,-1.752161235623080904e-01,-3.433358192466993974e-02,-2.955695707964470786e-01
-1.927535329928442565e-01,-9.991684225591253299e-02,-7.166873438195844881e-02,-7.411949983240349871e-02,-1.736928529871721583e-01,1.190078074537673114e+00,-1.585600434470187392e-01,-8.167532865508105033e-02,-1.864296694190592518e-01,-1.512615705662217203e-01
-5.535273912087784742e-02,-7.979642458401997249e-03,-5.104037324215055481e-03,-8.795655810734475527e-03,-4.078805116320471241e-02,2.356625898350049320e-01,-5.806514189656660635e-02,-1.458475681269644393e-02,-6.813225498371741455e-03,-3.817933974993603652e-02
-1.018006866540189116e-03,-5.176509044342900807e-04,-5.499827217792219690e-04,-3.568547542647524718e-04,-3.547076815353819752e-03,1.283993143876484104e-02,-7.062055197106981153e-03,-2.668744936350891592e-03,1.062282927346513452e-02,-7.742388516399810287e-03
-3.094560589316938616e-05,-2.713002269252418636e-05,-2.667144778983272630e-05,-3.357130049882081592e-04,-1.310162464133191322e-04,-1.007895534397600714e-04,-2.709796814534629286e-05,2.506645050511795321e-03,-3.113460522624997989e-05,-1.796146595923385275e-03
-4.213649153245027429e-04,-2.265876559869467195e-04,-1.971946863994531818e-04,-3.980013461554541242e-03,-5.887921983954821220e-03,-1.110227030437811215e-03,-2.151347960113788183e-04,3.929559721786188980e-02,-8.365503043575384448e-04,-2.642060238383489579e-02
1.075738618708125920e-02,-1.329897083061358596e-03,-6.214323816196699966e-04,2.490473938725046472e-03,-3.910511209147797540e-02,-9.722817126331134707e-03,-1.412678334976565954e-02,1.498681431247604612e-01,-1.420533778770530046e-02,-8.400462343060564885e-02
-1.894749008530951032e-02,-2.385184854216413491e-02,5.268418625652970116e-02,1.626950058780853026e-01,-1.081006982494512603e-01,-1.074551428250107021e-01,-3.631754120145230108e-02,2.917702142899880058e-01,-3.021898411889801378e-02,-1.822577014023168407e-01
-9.555266806089800224e-02,-2.272449270337567953e-02,1.010902262365995750e-02,1.902210444581892423e-01,-1.094919053372683110e-01,-2.292215357562700506e-01,-6.195462680312506520e-02,4.096676478113789877e-01,8.838608092606287103e-02,-1.794385671583532127e-01
-6.006386758156507903e-03,-7.537306024548504069e-02,3.828678400285277089e-02,3.097353415742024052e-02,-1.151325419009212592e-01,-2.548963643404343893e-01,-1.533999912543714261e-01,3.561376895491495942e-01,1.882922292019679755e-01,-8.881892412016445873e-03
-1.109717693715880360e-01,-7.224438874724131709e-02,-8.476924038060536237e-02,-1.122394777011961192e-01,-1.426005757657516360e-01,-4.898691495686344211e-02,-1.538590337132418051e-01,1.456079523591416458e-01,4.018895757186264350e-01,1.781738725587519168e-01
-8.291023642738820643e-02,-1.403607905802305711e-01,-3.390416371821463049e-01,-3.509679229104325504e-01,-4.163801717216753656e-02,2.185135951494609763e-01,-7.171081207538993960e-03,1.395567811001398040e-01,5.130286345003594040e-01,9.099067473004625317e-02
-1.953990595068202246e-02,-2.108136778446751125e-01,-2.875883426117911701e-01,-6.432193987362573306e-01,-8.358330159897395251e-02,4.743584720286680434e-01,3.363248274575255520e-02,-8.097092150632327623e-02,5.238645868120364035e-01,2.938600066624939555e-01
-2.040486459453222032e-02,-2.719757447559117414e-01,-2.035579280128554935e-01,-9.306157491438522555e-01,1.072645037617126068e-01,6.265284515432364421e-01,-1.575485655838186061e-01,7.366085594080816479e-02,6.415769500786770996e-01,1.350720907670183990e-01
-7.269229949444037941e-02,-2.561738311133875401e-01,-1.255551246944969501e-01,-9.627119060629391045e-01,1.503886567701752663e-01,5.785529001648409553e-01,-7.729387641170754053e-02,6.750354634029083478e-02,5.069510306183849790e-01,1.910309038840400653e-01
2.420786687935773396e-02,-1.135390725601095191e-01,-1.613075652251951542e-01,-9.436756335379058447e-01,9.696904147501535232e-02,4.742731942876891593e-01,-7.097071693563587746e-02,-3.256431593379086054e-02,4.261376607038048769e-01,3.004695408475352436e-01
1.298484066020079986e-01,-8.798260335240384519e-03,-3.559684456222391713e-01,-6.420138365485232868e-01,1.993061487473053450e-01,5.664119477541360581e-01,-1.403367484028677781e-01,-6.030732774290453735e-02,2.975769779230465484e-01,1.428113762584068934e-02
1.098814032500368826e-01,2.097317474466361409e-01,-5.058578515714058366e-01,5.623286769646036742e-02,-4.041118347883072559e-01,5.413572642069475194e-01,-1.591491544381314627e-01,2.878302809176928601e-01,-3.284070134377061606e-02,-1.030740213757624923e-01
2.323702704387268017e-02,5.866771437515071463e-01,-2.428781221191987083e-01,4.707918926515146651e-01,-9.754369042831303460e-01,1.017478145253301880e-01,-4.333738066244372522e-01,5.929019741165885149e-01,-2.466750038954758917e-01,1.230079848337657933e-01
-1.969357336345267384e-01,7.512148759672822029e-01,-1.065583067538649203e-01,5.934597210055211347e-01,-3.490949341008992568e-01,-2.883633749012026737e-01,-5.548478302572499299e-01,7.738190294700364458e-01,-5.248571021655987767e-01,-9.783634462915292984e-02
-2.478644299869444123e-01,3.895870994657915087e-01,-2.499047967910472332e-02,5.367509656982422106e-01,1.146598513390666707e-01,-4.666575249934633018e-01,-5.188314603351897869e-01,8.456577309972187484e-01,-4.975099565280991509e-01,-1.308017959770279570e-01
-1.652258834526318387e-02,4.471566339713699267e-02,1.614191823595813313e-02,3.935867662905389031e-01,2.287486549886614262e-01,-4.719451032972091231e-01,-5.992030405814677829e-01,6.852450612943274955e-01,-3.245608166714252230e-01,4.379348468941907796e-02
1.479344108161213533e-01,-2.410595880894628729e-01,7.162525520711253424e-02,4.822297059887036275e-01,-1.245110333547385928e-01,-4.885263398186464046e-01,-5.907411874423842413e-01,5.737111502100156191e-01,5.851744158276268870e-02,1.108201849012670354e-01
1.117676646998858603e-01,-3.163156380123030575e-01,-4.386200422746051181e-02,4.906453391375293904e-01,-6.062950274758342056e-02,-4.515604340050871635e-01,-5.077671406407633370e-01,5.505956402563005891e-01,1.461529039586721979e-01,8.097317158141317806e-02
1.567408855272477697e-01,-3.793556585833884887e-01,-1.974116120528853977e-02,5.012244097255175168e-01,-1.707168825049179273e-01,-3.117803490769769925e-01,-4.034482592424019076e-01,4.632919930884372706e-01,4.429159636244495851e-02,1.194934259096646634e-01
7.470925178344807460e-02,-3.571151779597809828e-01,-1.276607512704484304e-01,2.888656803996413891e-01,-6.840112698584982498e-02,-1.618220430821148415e-01,-3.395620208462509781e-01,3.002252587877011214e-01,4.014868493873706701e-01,-1.072592021355020173e-02
3.186596427237678442e-01,-2.750285370243604199e-01,-1.440006985277030027e-01,-2.880815666479355497e-02,-2.358565231425861497e-01,-1.561922283733938347e-03,-2.474226487845648526e-01,2.312669916780432933e-01,5.789152725609750805e-01,-1.961634205349767068e-01
5.796293430153053317e-01,-1.997757410855152682e-01,-1.564296651333593469e-01,-2.281447898285956233e-01,-3.600884305645641326e-01,5.358155499320458315e-01,-9.465914850144073467e-02,-1.514385397598612681e-01,3.213256922158231887e-01,-2.462342702898196456e-01
2.702067292622663541e-01,-1.381954926328989031e-01,-9.531244073866733391e-02,-1.700283127229045288e-01,-2.835939227594612144e-01,1.061745820846307531e+00,-1.132099236166121126e-01,-1.854189604639052413e-01,-9.144331231037924890e-02,-2.547501848637429567e-01
-1.819120292007475326e-01,-4.665601535934092714e-02,-2.295616434305050232e-02,-2.979339064904419285e-02,-1.819446816117661347e-01,9.088492366753966323e-01,-1.963539300760889783e-01,-7.254298762028232872e-02,-4.928599447513064974e-02,-1.274040433399456496e-01
-6.669053811795110087e-02,-4.644251616645929913e-03,5.662362711634837641e-03,-4.293189577340633840e-03,-5.118195872636580046e-02,2.140692432954339197e-01,-8.655117905477253959e-02,-1.346625595705011093e-02,4.512436207205347549e-02,-3.802859502899639393e-02
-4.914238750902200688e-04,3.447132429200605499e-04,-5.047095001000381992e-04,-3.336386966660544141e-04,-1.762773171316759854e-03,1.234660166390663151e-02,-1.369992703516429745e-02,-3.614129579197883444e-03,1.853453900504812429e-02,-1.081925205433955164e-02
-1.227691809652035493e-05,-1.071502203761979445e-05,-1.099421309862731640e-05,-1.219518363432815203e-04,-4.257194883604853869e-05,-3.143960195863591356e-05,-1.085811338152610191e-05,1.147423674008727799e-03,-1.183262039493610363e-05,-8.947833998615327888e-04
-3.353862709622471776e-04,2.848103784695882215e-04,-2.474829907019020117e-04,-2.977022627533019213e-03,-1.313965469606737796e-02,-8.180285263428262524e-03,-4.576266839788214287e-04,5.564019333927279487e-02,-9.032618464649606622e-04,-2.968428333860578458e-02
-2.853094148091660925e-03,-5.595444947234444293e-04,-1.288803269449241172e-03,-6.586360364458723055e-03,-8.253594190337225356e-02,-2.027057396015724197e-02,-2.056217015389904569e-03,2.431324397499092793e-01,-9.797141619216253455e-03,-1.171847629750504549e-01
-1.398506665718816412e-02,-1.339679964882196928e-02,8.794321906972130121e-03,1.375283225116777364e-01,-1.100999750294115731e-01,-1.013171701449425838e-01,-3.920286879303996191e-02,3.507384988199448994e-01,-2.508846979075025213e-02,-1.939707931744397984e-01
-1.102067294882825566e-01,-6.225263020963171280e-03,-1.052272258400646365e-01,1.363991731657221151e-01,-1.017593168468642895e-01,-1.328471497494790321e-01,-3.276938451893395693e-02,3.445052136454995750e-01,2.111938382819130225e-02,-1.298870117482469645e-02
-3.388961578244634176e-02,-2.953553833881584698e-02,-3.214998871321664287e-01,-1.318305789387150262e-01,-8.594008777909221963e-02,-5.923245940188374969e-02,-4.579288619570820451e-02,2.425082133253890215e-01,1.983881382641462243e-01,2.668247019792983066e-01
-6.184867858535916807e-02,-6.611408039794215707e-02,-5.924399443915551178e-01,-3.750357332867080284e-01,-3.813634799037250722e-02,2.488411490439818019e-01,-1.957322311051358510e-02,1.757602857666216711e-01,3.897666961574928202e-01,3.387798767943938638e-01
1.107342569373614971e-02,-1.311378986517192369e-01,-7.360456199925553555e-01,-6.815060062813291797e-01,1.444339176822187834e-02,2.593063122450161573e-01,1.256675040589321501e-01,1.418079326602972590e-01,5.691048577780846163e-01,4.272861007214313056e-01
-7.236946317116071947e-02,-1.942461819832391190e-01,-7.719193845675315080e-01,-8.385941963698898549e-01,1.808177512673761200e-01,3.922355279273193052e-01,9.264261032782614147e-02,-3.136820190105257811e-02,5.922710467459867401e-01,6.505304917246360619e-01
-1.640132616340414795e-01,-2.472704632624641019e-01,-6.947370794179216213e-01,-8.707116856051370091e-01,4.718241233862939255e-01,2.552577465634255915e-01,4.393315764305916193e-02,1.820918921610228114e-01,6.348923775670918257e-01,3.887331925992437154e-01
-9.995682113010923020e-02,-3.031463934158115658e-01,-7.897253725197594942e-01,-6.292757044557992785e-01,5.385268100848865647e-01,2.262000921269537168e-01,5.551283712578228280e-02,1.632937425361203065e-01,5.173325911748278827e-01,3.212382184736244928e-01
3.224929130495184787e-02,-2.964961122278237937e-01,-8.442303189711898304e-01,-4.275165090593511796e-01,4.364980480743501090e-01,4.000340958262719737e-01,2.306186459535708097e-02,-1.468455082976942959e-02,3.815212208782247649e-01,3.095629704096053980e-01
-6.595313290765758042e-03,-1.012892287795943147e-01,-9.938097054678453057e-01,-2.358316117893497488e-01,3.211384710501087869e-01,6.265264581267540045e-01,6.891529384052938467e-02,-1.217313938521702166e-01,4.876187648678665387e-01,-4.494173470509015000e-02
-1.408153330334193931e-01,3.431091048698646229e-01,-1.110359056538757994e+00,2.554829232205301226e-01,-7.126070280775326227e-01,7.891764602358042335e-01,2.452580779670689853e-02,9.529783782280913662e-02,5.667680319366339425e-01,-1.105787482323225684e-01
-4.194365193917029555e-01,7.778480310827078359e-01,-7.916935661724318063e-01,5.350926957781864113e-01,-9.245253848728669510e-01,3.551956872177646218e-01,-3.435631786869108861e-01,4.094797577278113665e-01,3.615273819540119060e-01,4.007509536375174902e-02
-7.301552050880474320e-01,8.312710161259259101e-01,-5.498493880926926813e-01,5.023136875008333835e-01,-1.968890015278973726e-01,-7.948577973502159166e-02,-5.431426463032419383e-01,6.845834573060988193e-01,-4.989072619928147656e-02,1.312445860137526343e-01
-6.666463689831046979e-01,3.564981832506919912e-01,-2.942977296142009758e-01,3.331637229047536009e-01,5.141055958698226291e-01,-3.498008392630805874e-01,-4.503348041505658705e-01,7.670176217504707239e-01,-4.019142147011632304e-01,1.922088329369675830e-01
-3.063300953255470582e-01,-4.140610476914326904e-02,-3.321052607542407942e-01,5.045029077318718969e-01,2.764446729503178268e-01,-5.054893176784155395e-01,-4.787015301825581215e-01,6.118723897991777960e-01,-2.321937515087427462e-01,5.034060897379994959e-01
-9.947690652790032451e-02,-1.186453931410582363e-01,-1.184131476729880367e-01,5.192730414117741056e-01,-1.599424842804255398e-01,-5.411806354510338979e-01,-3.446902828252178530e-01,5.885220712894302375e-01,-2.115004830268481517e-01,4.860542202250147659e-01
1.235721995594665692e-03,-2.286390528772733466e-01,3.804221982995677903e-02,3.771898688904243846e-01,-2.086011038537858853e-01,-6.786335887216392582e-01,-2.591698352269586891e-01,3.537294238328537177e-01,6.111815395030382320e-02,5.437281921810409591e-01
5.279977837086775871e-02,-2.419714997989091676e-01,1.705509280217387940e-03,1.780097165429229966e-01,-2.048157803366268404e-01,-9.451422244621204838e-01,-2.320230353302391302e-01,2.006898033516542612e-01,3.778632345279679394e-01,8.128844978545394229e-01
1.547706833593507636e-01,-1.969491074166597189e-01,-8.185537553604178840e-02,-7.749795262441155907e-02,-1.514081672773434639e-01,-9.261272074504844909e-01,-1.185592645009854174e-01,2.546821672494377076e-01,6.024924437713869985e-01,5.404517804258901492e-01
2.941308992597240768e-01,-1.345450611359909621e-01,-1.507692338834648316e-01,-1.382651776035903612e-01,-2.754838065956487503e-01,-7.751657986350422025e-01,9.865149354965627171e-02,9.229727913914738402e-02,7.654788278620516806e-01,2.236705780432042823e-01
5.499380427831802587e-01,-9.261662902061955360e-02,-2.101971501967380418e-01,-2.016030903482997905e-01,-2.707290231680894999e-01,-3.563498699760614397e-01,2.575977623455067422e-01,-1.482318974551669610e-01,5.283794770960558163e-01,-5.618762205975472851e-02
3.453908600717967570e-01,-6.521398325099683757e-02,-1.953120291641886885e-02,-1.168009932658719968e-01,-2.229551378745663615e-01,1.461149133372539877e-01,8.415729049822297594e-03,-1.352234910859465289e-01,2.529753917002475760e-01,-1.931720857653185242e-01
-1.062070921915180821e-01,-6.546089738755207776e-03,8.405767571467226418e-02,-4.290899202541569382e-03,-1.350979911591128346e-01,4.455290962392695620e-01,-2.115231723575098921e-01,-3.774307668555127587e-02,5.418013254078148794e-02,-8.235858315973440535e-02
-4.195503538481520911e-02,-1.484407298623957247e-03,1.037839200287945726e-02,-1.554326903865947554e-03,-1.597760047214377352e-02,1.384111013361556120e-01,-8.543152352583993636e-02,-9.030749327263489987e-03,3.994226785195532231e-02,-3.329811827843794092e-02
-3.422692178510189343e-04,3.731213366318085825e-03,-8.451458067195443292e-05,-6.626859922499373141e-05,-7.355085578200707937e-04,6.342092137236060752e-03,-8.199781232137317785e-03,-2.185053661706002660e-03,4.719152131240018748e-03,-3.179061785382806052e-03
-6.618559768828816021e-06,-6.393722381732055063e-06,-6.578860975742787140e-06,-6.560055337952184812e-05,-2.171543580076694844e-05,-1.389786001570788054e-05,-6.426119450639605818e-06,7.173138941541589396e-04,-6.895949180718758710e-06,-5.831868332005001000e-04
-4.044051101310669331e-05,-6.519807506149112933e-05,-7.035443593053873482e-05,-3.759103058953350632e-03,-2.079558030946031255e-02,-1.145062979923963491e-02,-3.899628930947478863e-04,5.280454271566459301e-02,-3.385721720446496145e-04,-1.589470146086672739e-02
-2.120950909180902358e-03,-3.914696606388352786e-04,-7.102403666757341584e-04,-1.447358899134789691e-02,-8.128201573498047838e-02,-1.769482305669903971e-02,-1.327895014526830420e-03,2.206567280890469329e-01,-3.868794907063307330e-03,-9.878694944793395272e-02
-1.949457912628703438e-03,-1.842584036503086119e-03,-4.654155076760683324e-02,2.990678699408202620e-02,-1.236842047059895922e-01,-3.016698859390908039e-02,-4.369802442537253084e-02,3.334801074963795742e-01,-3.845079016676670840e-03,-1.116590050317752686e-01
-5.834669437004093989e-02,1.166215770039876268e-02,-1.760615645925513451e-01,-2.005855878461600735e-03,-1.305630962343321544e-01,-6.561495200358567759e-02,-4.657409980862725618e-02,2.421080519346404669e-01,2.292614866075213392e-02,2.024699045918085527e-01
3.817882054136909759e-02,-2.173350383560454166e-02,-5.412220838590644512e-01,-2.622613840849212785e-01,-9.611216939017605543e-02,6.013269702497180819e-02,2.544535303883280197e-02,2.102666949873548408e-01,1.392920124672647475e-01,4.480135631099827487e-01
8.386890190608983775e-02,-3.913517126827840975e-02,-8.544403507393785180e-01,-5.649143018027936725e-01,6.106804112382070021e-02,3.509434493037583702e-01,1.206094091781232391e-01,3.721345078653887084e-02,2.189497375905223309e-01,5.858368339216438736e-01
2.962296053582682415e-02,-8.784901087616055204e-02,-9.659194997755107259e-01,-6.817683146277986328e-01,2.125477990591758681e-01,2.424809171833104959e-01,3.109215141458719356e-01,1.503538900305886328e-01,3.557098627758957798e-01,4.338998815489311101e-01
-6.308823709472416441e-02,-1.635268673716362142e-01,-8.663072400688487384e-01,-6.424410716162166635e-01,5.595104096671177363e-01,1.980982964632524157e-01,2.028583239204672650e-01,1.782664042592545794e-01,1.772518894614168172e-01,4.193780923802352678e-01
-5.870773771178688233e-02,-2.327466369368260124e-01,-7.749782651702723513e-01,-3.777885906916032543e-01,5.127644281361037892e-01,2.379996995929132414e-02,1.659074082240689918e-01,7.830786349368251686e-02,2.387435776729616710e-01,4.246979830249680843e-01
-8.293235643037787097e-02,-4.140654027002260706e-01,-7.496605754403652400e-01,-8.849469028982256957e-02,7.131068983206394485e-01,3.362381157372780760e-01,1.518702258879497113e-01,-2.532907311837815506e-02,-4.475494904113232197e-02,2.040218070751171064e-01
8.214524330877366609e-02,-5.333518176254575804e-01,-8.592944017941184232e-01,-1.444270358299292178e-01,9.384998149226104758e-01,5.462160955576463861e-01,1.893751680131200155e-01,-3.145916082740756736e-01,4.203676854538783425e-02,5.339177317661689126e-02
2.485405406478824811e-02,-1.484578732739021412e-01,-1.003711665787877294e+00,1.370704549872594213e-01,6.728559507835731868e-01,5.926885952909417554e-01,1.516791624872102506e-01,-6.924188450711225018e-01,4.645733627099079555e-01,-1.991331961903903547e-01
-2.253603264024297281e-01,4.319164603981257566e-01,-8.912219903029646728e-01,2.875651091057497277e-01,-2.333051679883479390e-01,5.147904482963978623e-01,5.621302552188336965e-02,-7.983197578999682298e-01,8.077448598852113859e-01,4.997733938670442799e-02
-6.501642051235841935e-01,9.452874814563656525e-01,-7.634468101938475249e-01,4.499155851260130401e-01,-5.262208047723460069e-01,1.377307822026504480e-01,-3.261726115008617977e-01,-2.784173771962072386e-01,5.739568262095853246e-01,4.375311337926836575e-01
-8.930421622981299379e-01,7.897632201037179112e-01,-6.821516960234690341e-01,2.455882249283193597e-01,6.758760394767106272e-02,-1.810946755330273272e-01,-4.014096965936246875e-01,3.792679386655783969e-01,1.255929065390962718e-01,5.498983362645557538e-01
-7.828241222608575134e-01,2.922711335409954314e-01,-5.813174262483503663e-01,2.477938485179965733e-01,4.662326239388138727e-01,-5.086169888607907641e-01,-1.858528433773096733e-01,6.479585374722554025e-01,-3.831943763949265114e-02,4.426746749175755613e-01
-3.662375430903199724e-01,6.594829992198611435e-02,-4.521869125046067417e-01,1.951093041275949735e-01,2.756455524922848399e-01,-5.589024469557165586e-01,-2.028181062597901874e-01,4.668495266060159743e-01,-4.684790668171036343e-02,6.234402323452201689e-01
-8.185628997826839559e-02,-1.749826008817905731e-01,-3.278756695263688181e-01,3.381250391336963479e-01,-4.538799675999415778e-02,-4.391132112255019537e-01,-2.339220301433637406e-01,4.457886936815940171e-01,-8.833860564567858065e-02,6.075626713465062112e-01
-4.215127941253601213e-02,-2.606822774344754179e-01,6.315441439635272047e-02,4.433446248621493446e-02,-9.139229680510493892e-02,-5.873249974087214609e-01,-2.621972069349809420e-01,5.834698810367017902e-02,2.338847992489592187e-01,8.440273937611053601e-01
-4.023111032907709245e-02,-1.853691659148624660e-01,-2.622616744324863386e-02,-2.639688770700012732e-01,-6.809151421518802594e-02,-8.248950702648440991e-01,-5.140229898787953416e-02,2.755874350817120316e-02,5.378236678731710407e-01,8.948017928439788715e-01
1.078144766011256001e-01,-1.057936538999368487e-01,-2.866455929460480501e-02,-4.431994270978751316e-01,7.884768744373511773e-02,-1.066534298524562718e+00,1.181854423591799097e-01,8.515571496223147199e-03,6.674578253005727380e-01,6.633709356162456050e-01
3.434895701367610132e-01,-7.976112833668577706e-02,-2.678271030498951544e-01,-2.829284684867630073e-01,-7.120012120339155870e-02,-1.014221855156591801e+00,4.101696734778816911e-01,1.897182418710592622e-02,5.740970281421912125e-01,3.692105802894304345e-01
6.374750607489448884e-01,-5.323948134499661283e-02,-2.864746196936189260e-01,-2.017923284295381758e-01,-1.827209593809803467e-01,-9.004606654054095882e-01,5.392627643726566333e-01,-7.936612363298922723e-02,4.795980163410319408e-01,4.771833642490992677e-02
4.783007897745051862e-01,-4.953172132467361516e-02,6.148652157587514849e-02,-7.671486052319316518e-02,-1.420460834881832612e-01,-5.053771310417427554e-01,1.874338981491638911e-01,-7.521682940285419339e-02,2.810025337308125759e-01,-1.593371174497085763e-01
4.510414687150827474e-03,-1.465362418536985366e-02,1.708423010120774521e-01,1.638519482374791380e-04,-7.050564396587076510e-02,1.641889460705931239e-02,-1.118764294632705325e-01,2.133890326371704754e-02,4.537466476258220777e-02,-6.161333266631312949e-02
-1.377450067425734642e-02,-3.315320620507363012e-03,5.816695635024145272e-02,-6.785459382644667883e-04,-2.123568398202677412e-02,3.188095266379680631e-02,-6.276518805807042301e-02,1.450743790380678265e-02,1.448511906057401918e-02,-1.727122670529271375e-02
-7.265671972338333894e-05,4.457091893904986321e-03,7.994315205648696090e-03,-1.191504790106361923e-04,-5.831704786747383441e-03,-1.570536757978545578e-03,-4.484837320658853835e-03,6.297814711113574812e-03,-4.584258247152483284e-03,-2.086077499395969873e-03
-1.272941742583404671e-06,2.572963800300010165e-05,-2.739458606277081596e-06,-6.832678584352425059e-06,-1.289430200686849445e-06,-1.638910539032043361e-06,-1.973581740012384343e-06,-1.989062954778894461e-06,-2.680069433214201872e-06,-5.313504202062829334e-06
5.527181584613826901e-04,-2.318660189661650632e-05,-3.913757448223081041e-05,-3.014238052195592713e-03,-1.549116307984622735e-02,-2.443600084625960952e-03,-4.101030179894566991e-04,3.219309511777113803e-02,-8.065929889693834287e-05,-1.124372556629949817e-02
-9.516310735969451444e-04,-1.441606604577573341e-03,-2.507990441725194380e-04,-8.649769438530558949e-03,-6.001249144536881241e-02,-7.263921974958188407e-03,-1.482955147380864017e-03,1.338425135931269327e-01,5.449204447556303893e-04,-5.433425930929706299e-02
8.730922405837268641e-03,9.058735488845615189e-05,-3.750478694164438576e-02,-2.590010997874777829e-02,-7.108649196349360599e-02,6.261165903639679536e-03,-3.380381830569429563e-02,1.644467114543103903e-01,-3.886948676235940387e-03,-7.347231252859652562e-03
-5.819360000414752071e-02,7.981940890366865174e-03,-2.293447082535879922e-01,-1.253683852380166608e-01,-2.004814531794872276e-02,-5.443756415962024489e-03,-4.960367454763994072e-02,1.806070098223080400e-01,-3.713499892402000180e-02,3.365483179886481491e-01
6.692752539089281971e-02,-2.059910156409431106e-02,-5.641777283920836883e-01,-2.757312454624500919e-01,1.420005907008733970e-01,6.884112593607584485e-02,1.045226517366811408e-01,1.619995645944071472e-01,-1.226803181497094358e-01,4.388969352094187482e-01
2.529006448949654984e-01,-2.558463902472694895e-02,-8.627917347528671899e-01,-5.132432605053303121e-01,3.659150809091368250e-01,1.992978593249195851e-01,2.443773160062983618e-01,4.687771466087527206e-02,-2.032687525039849341e-01,4.955197709907623871e-01
1.741741103252762435e-01,-9.878033815090614400e-02,-8.606839340321998932e-01,-5.852164762819498378e-01,4.786250491839438848e-01,2.507632895460761846e-01,2.761084494325382610e-01,4.141207561662218345e-02,-2.151861198345187409e-01,5.387838941952599603e-01
1.366792067597226989e-01,-1.458978796532564570e-01,-5.859130766211130270e-01,-3.865929370323101799e-01,5.882539008181213447e-01,1.042614433883447822e-01,2.073829187790146023e-01,8.265482728549494382e-03,-2.703528598788141890e-01,3.439138007121025353e-01
1.257780460139870660e-01,-2.724167175191622436e-01,-4.304886505301301347e-01,-2.772533067694206155e-01,5.066440839937940144e-01,1.729777174240229587e-01,2.277093646883003308e-01,-1.408610335521759960e-01,-1.003030340768218953e-01,1.882135303281828320e-01
1.716946765963056898e-01,-5.651842123296573206e-01,-2.992612361845588542e-01,-3.119542660922374200e-01,8.299019617025686912e-01,4.183422611403049829e-01,2.770371473240279547e-01,-3.642311517912601437e-01,-2.110255901240963017e-01,5.468040975922670854e-02
1.680334646433145618e-01,-6.527808455736898718e-01,-3.685456561751652149e-01,-2.686080244594535316e-01,1.244773266482824159e+00,5.625881041939047034e-01,2.412560121580785422e-01,-9.340608199898516872e-01,1.558787070941863306e-01,-1.485342083736056196e-01
7.581342946671702776e-02,-1.467947641561132555e-01,-4.656731063097642176e-01,1.750172431380880300e-01,7.984903786076943399e-01,4.107217848121572090e-01,1.557917980870905938e-01,-1.335169878361980311e+00,5.978844548401006653e-01,-2.660813401234357611e-01
-4.838198527213643518e-01,5.441177757958716166e-01,-1.454490439619064157e-01,3.258178366865111530e-01,-8.113997618447522930e-02,2.795184265421228331e-01,-9.122307636554699561e-02,-1.358465300366295203e+00,7.079572742698941878e-01,3.026859363058188035e-01
-8.465359814157367158e-01,7.850735770391370494e-01,-1.512424765532435766e-01,3.265227562266047601e-01,-1.883733607646152219e-01,-4.331107833860677742e-02,-1.714099427779550988e-01,-5.883894288064256406e-01,2.328257538358494694e-01,6.448401815557537331e-01
-1.041369066738183635e+00,5.563029533363570422e-01,-4.427807226501044857e-01,8.985307835194067394e-02,1.956499104120748567e-01,-4.753528985213023583e-01,3.499720327733103764e-02,9.758273973720768546e-03,4.052453717253452492e-01,6.676958968337811662e-01
-9.148721747290058381e-01,3.332913156644392028e-01,-4.747255419724752956e-01,2.223966971765199974e-01,3.608685896713051400e-01,-6.467837287352551368e-01,2.281395572435981206e-02,2.372656000196609882e-01,2.118308842395821845e-01,6.479144029420097484e-01
-4.182613063027929567e-01,-2.805363890367143162e-02,-2.923970282348178351e-01,1.035084062978431224e-01,4.388885326897521977e-01,-4.038203189940270943e-01,-1.324945876328916528e-01,1.692163228065217129e-01,-1.066878661496326042e-02,5.740824048902413157e-01
-1.022454653548214576e-01,-3.226873289306200765e-01,-2.123115323785786934e-01,2.114288118547916207e-01,2.787705137037734260e-01,-4.033744716217292359e-01,-2.534449683182654622e-01,2.842719622749290131e-01,-1.117932843469719717e-02,5.307718072060449988e-01
-1.429081148695540149e-01,-2.904840225090342121e-01,-1.148609416434114884e-02,-2.790473471077982159e-01,1.490770304604767393e-01,-2.415870417977552809e-01,-4.553591701751806553e-02,7.252303806635766736e-02,-3.451549345733744955e-04,7.897936238742078174e-01
-1.594701841451151569e-01,-1.914980729583751762e-01,-5.198956730874107479e-02,-4.594624321752902030e-01,2.454966122805757045e-01,-2.981507814982488624e-01,-1.083540364830812459e-02,7.234770445578533882e-02,1.799858475922217205e-01,6.735762774056979207e-01
1.027328301091372798e-01,-1.401834203383683641e-01,-1.893120161142894040e-02,-4.469272996360724726e-01,2.314640437823023422e-01,-5.474756662771961269e-01,1.980318087217509126e-01,1.257095005312228730e-01,4.991559021707926702e-02,4.456638145016559860e-01
4.546055723348974564e-01,-1.038560802315091208e-01,-1.919879229800951215e-01,-3.117742252800021485e-01,9.363500487666230609e-02,-7.416699660928259830e-01,5.269086025408520335e-01,1.007079410942492981e-01,6.005635068145956379e-02,1.133747230563451197e-01
6.211391622207587115e-01,-7.777814772744397198e-02,-1.585788200402851733e-01,-1.862561811874226259e-01,-1.462634249756482041e-01,-6.765539545173523406e-01,6.767927119203003272e-01,5.008281443367546514e-03,1.053791178168415887e-01,-1.628887449531039588e-01
4.297586352363766404e-01,-4.857842939412274075e-02,1.756675204281925307e-01,-6.847659799533975522e-02,-2.020621119205940619e-01,-3.923081871095462914e-01,2.679483509524197560e-01,1.067619696779964315e-02,5.009485073310582237e-02,-2.227202278982902961e-01
